tree
version=v4
num_class=1
num_tree_per_iteration=1
label_index=0
max_feature_idx=19
objective=binary sigmoid:1
feature_names=Column_0 Column_1 Column_2 Column_3 Column_4 Column_5 Column_6 Column_7 Column_8 Column_9 Column_10 Column_11 Column_12 Column_13 Column_14 Column_15 Column_16 Column_17 Column_18 Column_19
feature_infos=[-2.0060959462178447:2.9396991237836785] [-2.3015477614088837:5.3896169449869458] [-3.021995601651668:4.2011077715299407] [-2.5877521989666188:5.084976330302422] [-3.9787988197326292:1.581444378275892] [-1.6787029086209377:3.7488109741791278] [-2.1559515615097693:6.1489142153200858] [-2.4401455380518717:5.5394951899591565] [-0.34828009486222178:8.1711012226147819] [-1.065828964194292:7.236317239335798] [-1.3026612496796683:9.2441920157658704] [-3.6657689813256153:2.889506590099244] [-3.2471026904899061:3.8702183623128072] [-2.557658365246597:3.2870065147389882] [-1.7504885741174256:10.530206734895525] [-1.0153633215231528:24.284711552769433] [-2.4149922566603488:9.1035940369173503] [-3.4600578672941134:3.9729352060270062] [-2.2702247769265171:5.8368355385472981] [-0.6508123962967246:7.0057936632939271]
tree_sizes=1808 2119 2025 2132 2125 2233 2122 2141 1819 2243 2127 2345 2243 2035 2342 2031 2137 2139 2444 2238 1918 2235 2238 2028 1933 2343 1921 1406 1929 2030 1514 1611 1712 1299 1819 1087 1303 1604 1824 1399 1828 880 1612 1409 1934 1829 986 1616 2451 1300 1514 987 1289 1094 2034 1406 1082 1926 1515 1821 1291 2650 1938 1293 992 2255 1711 2140 1197 1308 1188 2154 1194 2556 1506 1299 1819 1623 2353 1198 1415 1626 1926 1952 1197 2457 1083 1194 1831 1199 1835 1731 1622 1516 1409 1839 1303 1287 1516 1402

Tree=0
num_leaves=17
num_cat=0
split_feature=13 8 9 12 3 9 18 12 3 19 9 7 13 15 16 16
split_gain=260.818 80.2074 29.4101 23.4227 21.4301 15.4175 13.1229 12.8171 14.881 10.7719 7.81356 10.0833 6.02065 4.11259 2.20223 1.67062
threshold=0.47298571535708872 -0.34458517532216043 -0.62160977202942524 -0.29641556011491338 -0.22326036259534235 -0.23308490515239391 -1.1464825175437514 -0.52445433324677804 0.15657768340807554 -0.4649406669343622 -0.3701758004948929 -0.5510466930053517 0.62954212130769294 0.10392755935291606 0.79964080987815966 -0.9878218866702807
decision_type=2 2 2 2 2 2 2 2 2 2 2 2 2 2 2 2
left_child=1 4 7 -2 5 -1 -4 -3 -9 -8 13 -12 -5 -6 15 -14
right_child=3 2 6 12 10 -7 9 8 -10 -11 11 -13 14 -15 -16 -17
leaf_value=-0.042105263157894729 -0.0051282051282051282 0.1130434782608695 -0.040000000000000008 -0.097435897435897437 -0.18222222222222212 0.15555555555555556 0.078260869565217397 -0.18333333333333335 0.025000000000000001 0.14454277286135694 -0.1333333333333333 0.050000000000000017 -0.14666666666666681 -0.078260869565217397 -0.13846153846153847 -0.1977272727272727
leaf_weight=9.5000000000000018 9.7499999999999982 5.7500000000000027 4.9999999999999991 9.7499999999999982 11.250000000000005 6.7499999999999991 34.5 5.9999999999999991 7.9999999999999991 84.75 6 5.9999999999999982 7.499999999999992 5.7499999999999991 9.7499999999999982 44.000000000000007
leaf_count=38 39 23 20 39 45 27 138 24 32 339 24 24 30 23 39 176
internal_value=0 0.0642008 0.100694 -0.150464 -0.0519337 0.04 0.118712 -0.0126582 -0.0642857 0.125367 -0.103448 -0.0416667 -0.170423 -0.147059 -0.182041 -0.190291
internal_weight=270 189.25 144 80.75 45.25 16.25 124.25 19.75 14 119.25 29 12 71 17 61.25 51.5
internal_count=1080 757 576 323 181 65 497 79 56 477 116 48 284 68 245 206
is_linear=0
shrinkage=0.1


Tree=1
num_leaves=19
num_cat=0
split_feature=13 8 9 12 3 17 3 6 13 16 9 9 7 13 15 1 16 16
split_gain=212.611 65.248 23.9373 19.266 17.4503 13.7365 12.0757 11.2909 9.56898 7.73496 7.57002 6.40089 8.2045 5.01864 3.41163 2.82471 1.85153 1.4086
threshold=0.47298571535708872 -0.34458517532216043 -0.62160977202942524 -0.29641556011491338 -0.22326036259534235 0.53194496046988848 -0.10930894879431699 0.13096986697326615 -0.04373918864514955 -0.78497835906917934 -0.20174837386049888 -0.3701758004948929 -0.5510466930053517 0.62954212130769294 0.10392755935291606 -0.086785001096583367 0.79964080987815966 -0.9878218866702807
decision_type=2 2 2 2 2 2 2 2 2 2 2 2 2 2 2 2 2 2
left_child=1 4 7 -2 5 10 9 -3 -8 -4 -1 14 -13 -5 -6 -9 17 -15
right_child=3 2 6 13 11 -7 8 15 -10 -11 -12 12 -14 16 -16 -17 -18 -19
leaf_value=0.020885821095746299 -0.0046154208674729202 -0.090193042719107858 0.056420627113035859 -0.087908319741718116 -0.16541584308529 -0.10192619895474093 0.088715722522967902 0.11522722604694846 -0.029352273665944763 0.1466013892306007 0.18559394948420888 -0.12055393151672347 0.045029167873172696 -0.13273752424546389 -0.070546687457159557 0.010066170690733438 -0.12523579495171683 -0.17976434295546906
leaf_weight=5.9973413944244394 9.7499360740184766 9.4576038420200366 11.210950106382368 9.72689540684223 11.157125830650335 4.9894115328788748 41.594249024987221 4.9911056160926819 8.2211236506700498 62.727778673171997 5.2183683514595041 5.9734121561050415 5.996251702308653 7.4598106741905132 5.7412046045064917 5.2315748631954175 9.7034182995557767 43.572730541229255
leaf_count=24 39 38 45 39 45 20 167 20 33 252 21 24 24 30 23 21 39 176
internal_value=-6.62042e-06 0.0580164 0.0909965 -0.136366 -0.0469347 0.0361124 0.107287 -0.0114448 0.0692307 0.132928 0.0975201 -0.0935534 -0.0376044 -0.154596 -0.133184 0.0614098 -0.165277 -0.17289
internal_weight=268.72 188.508 143.434 80.2128 45.0731 16.2051 123.754 19.6803 49.8154 73.9387 11.2157 28.868 11.9697 70.4629 16.8983 10.2227 60.736 51.0325
internal_count=1080 757 576 323 181 65 497 79 200 297 45 116 48 284 68 41 245 206
is_linear=0
shrinkage=0.1


Tree=2
num_leaves=18
num_cat=0
split_feature=13 8 9 15 12 6 3 11 4 12 1 14 3 13 16 16 4
split_gain=175.367 54.7186 20.6831 15.3318 15.0491 11.8867 10.5147 10.4093 14.9994 10.1882 9.67952 6.07831 5.49503 3.43154 1.65356 1.26739 0.626668
threshold=0.49315238392829858 -0.34458517532216043 -0.62160977202942524 0.14298440128642043 -0.29641556011491338 -0.38546654192862817 -0.10930894879431699 0.39336332454054246 0.019153547831331965 0.59535699303644518 -0.12498023611646587 -0.97289018837099051 0.15657768340807554 0.62954212130769294 0.79964080987815966 -0.9878218866702807 0.14298233857626852
decision_type=2 2 2 2 2 2 2 2 2 2 2 2 2 2 2 2 2
left_child=1 3 5 7 -2 -3 11 8 -1 -8 -5 -4 -7 -6 15 -15 -9
right_child=4 2 6 10 13 12 9 16 -10 -11 -12 -13 -14 14 -16 -17 -18
leaf_value=-0.13596228810702324 -0.009552190911354742 -0.14667781410823719 0.014183766459274294 -0.029325990526590046 -0.082220557087095122 -0.030890509084817025 0.077120373774787018 -0.14010975556816091 0.030975158889451206 -0.073820526960996932 0.14188342605359236 0.12934513019913726 0.090636710506480311 -0.12124240311096098 -0.11420613497677795 -0.16620322990234959 -0.18942085714211354
leaf_weight=9.5522088110446948 9.4997746348381025 4.9545768499374416 4.9127836227416983 7.4688000679016113 7.9316864013671866 7.1764551997184736 45.077150776982307 5.3867673426866514 12.329470992088316 4.9642897248268119 5.9192147552967054 68.318093106150627 7.7265851646661758 7.3555085062980643 9.5824505835771543 42.468991756439209 4.9412538260221481
leaf_count=39 38 20 20 30 32 29 182 22 50 20 24 278 31 30 39 176 20
internal_value=-2.33184e-05 0.0518279 0.0822197 -0.043571 -0.127378 -0.0124939 0.0974768 -0.0809554 -0.0418996 0.0621465 0.0463705 0.121619 0.0321161 -0.144001 -0.152249 -0.159566 -0.163702
internal_weight=265.566 188.728 143.13 45.5977 76.8384 19.8576 123.272 32.2097 21.8817 50.0414 13.388 73.2309 14.903 67.3386 59.407 49.8245 10.328
internal_count=1080 765 580 185 315 80 500 131 89 202 54 298 60 277 245 206 42
is_linear=0
shrinkage=0.1


Tree=3
num_leaves=19
num_cat=0
split_feature=13 8 9 3 12 7 18 9 1 15 9 4 2 9 13 15 17 16
split_gain=145.626 45.0127 17.7066 14.2525 12.9824 10.3057 10.3314 9.93425 8.76113 6.94751 4.90355 6.77734 4.78552 3.89329 3.10771 2.49404 1.66306 1.14987
threshold=0.49315238392829858 -0.34458517532216043 -0.51845811647649953 -0.22326036259534235 -0.29641556011491338 -1.7839250834457014 -0.62762712489082884 -0.069418415875300662 -0.48499202852249251 -0.1889074853619028 -0.3701758004948929 0.59723845888168392 -0.100026355831925 -0.70823843826638455 0.62954212130769294 0.10392755935291606 1.3063643418976685 -0.9878218866702807
decision_type=2 2 2 2 2 2 2 2 2 2 2 2 2 2 2 2 2 2
left_child=1 3 8 7 -2 -4 -7 9 13 -1 15 -12 -10 -3 -6 -5 17 -16
right_child=4 2 5 10 14 6 -8 -9 12 -11 11 -13 -14 -15 16 -17 -18 -19
leaf_value=-0.10644647300513897 -0.0085975946859782951 -0.10476649090267971 -0.042276840027149043 -0.14458504129028768 -0.074723598917483577 0.023659515350183985 0.11195272174574392 0.15122706339175782 0.12286753316049902 0.051187523236671563 0.048852465664092293 -0.10301892510595063 0.0082422142918638919 0.0071239743808685953 -0.10957245246137573 -0.063260711335591233 -0.090189956474212143 -0.15323651081355188
leaf_weight=4.9430022686719903 9.4991155266761762 7.3592822402715683 5.3973418325185767 11.11510249972344 7.8585095405578604 15.466772899031637 92.580457583069801 5.0515089482069007 6.1666264832019815 6.4369058907032022 5.4546876549720746 6.3696166723966599 8.8973095118999446 5.3855320364236849 6.9666715562343589 5.7074117958545676 5.6386958956718436 44.913648918271065
leaf_count=20 38 30 22 47 32 63 382 21 25 26 22 26 36 22 29 23 24 192
internal_value=-4.99419e-05 0.0472822 0.0750479 -0.039722 -0.117837 0.0925773 0.0993137 0.0345222 0.00353745 -0.0172827 -0.0823075 -0.0329589 0.0551656 -0.0574853 -0.133709 -0.116994 -0.141767 -0.147373
internal_weight=261.208 186.332 141.253 45.0782 74.8766 113.445 108.047 16.4314 27.8088 11.3799 28.6468 11.8243 15.0639 12.7448 65.3775 16.8225 57.519 51.8803
internal_count=1080 765 580 185 315 467 445 67 113 46 118 48 61 52 277 70 245 221
is_linear=0
shrinkage=0.1


Tree=4
num_leaves=19
num_cat=0
split_feature=13 8 12 9 0 17 3 5 9 15 9 7 7 13 18 18 16 6
split_gain=122.003 33.8143 19.8822 15.7607 22.9522 13.6396 13.0002 12.9584 9.7676 5.95773 4.4129 5.32132 4.013 3.90333 5.05912 1.99383 1.69954 1.19016
threshold=0.37923725210854392 -0.34458517532216043 -0.29641556011491338 0.21595300751413304 -1.0624903078622907 1.1093852637410329 -0.22326036259534235 0.048146400449329184 -0.076419551477144174 -0.61280393833273328 -0.3701758004948929 -0.5510466930053517 -1.3629672214431288 0.62954212130769294 0.027355260416846137 -0.54584196266007978 0.79964080987815966 0.40966853528384467
decision_type=2 2 2 2 2 2 2 2 2 2 2 2 2 2 2 2 2 2
left_child=1 6 7 4 -3 -6 8 -2 -1 -5 15 -12 -11 14 -4 -8 17 -15
right_child=2 3 13 9 5 -7 10 -9 -10 12 11 -13 -14 16 -16 -17 -18 -19
leaf_value=-0.014557766266465566 0.11555878879646274 -0.12097623066310025 -0.12665137518849784 0.016965271032788082 0.073366740280627882 -0.093068676346629006 -0.065761627012256588 -0.099271165276163267 0.15916355140036959 0.056287934397652353 -0.097840426405464642 0.038331801289181608 0.13441785846183182 -0.15182348823988046 -0.0097025509964984383 -0.14004600227495057 -0.093565640001073716 -0.1173987455234014
leaf_weight=9.6276762932538968 6.418026536703108 7.7677695006132117 8.4674655050039274 5.9724862128496161 63.195424601435661 5.3399832546710959 6.1007938683032981 4.9914160519838333 4.8755676299333564 7.7536689490079871 5.5446314513683319 5.9485238492488879 43.212220564484596 31.408483192324638 6.5683561712503424 8.8613989353179914 9.1151949763298017 14.763749629259108
leaf_count=39 26 32 35 25 263 22 26 20 21 32 23 24 182 140 27 38 39 66
internal_value=-7.60736e-05 0.0472168 -0.100873 0.0716443 0.0419346 0.0603988 -0.0322476 0.0215747 0.0438423 0.111458 -0.0739613 -0.0273616 0.122532 -0.12074 -0.0755626 -0.109757 -0.133026 -0.140816
internal_weight=255.933 174.2 81.7327 133.242 76.3032 68.5354 40.9586 11.4094 14.5032 56.9384 26.4553 11.4932 50.9659 70.3232 15.0358 14.9622 55.2874 46.1722
internal_count=1080 727 353 556 317 285 171 46 60 239 111 47 214 307 62 64 245 206
is_linear=0
shrinkage=0.1


Tree=5
num_leaves=20
num_cat=0
split_feature=13 8 9 15 3 12 7 14 11 4 13 7 0 0 16 16 19 5 5
split_gain=102.322 30.5938 13.9276 10.9839 9.86903 9.7138 9.12911 8.59177 7.87245 9.73435 7.60223 10.4107 5.52079 3.23664 3.15814 2.90174 2.59787 0.674154 0.456922
threshold=0.49315238392829858 -0.34458517532216043 -0.51845811647649953 0.14298440128642043 0.13758578110790465 -0.29641556011491338 -0.7656889836245232 0.37655098602232534 0.39336332454054246 0.019153547831331965 -0.43261794408572146 0.57207619629480944 -1.0624903078622907 0.10888220871701716 -0.92589332577315708 0.58517075906587435 -0.39797734619826636 -0.055154680673519689 1.8073049901900926
decision_type=2 2 2 2 2 2 2 2 2 2 2 2 2 2 2 2 2 2 2
left_child=1 3 10 8 12 -2 -6 -5 9 -1 13 -12 -4 -3 -7 18 -17 -10 -16
right_child=5 2 4 7 6 14 -8 -9 17 -11 11 -13 -14 -15 15 16 -18 -19 -20
leaf_value=-0.11115399388477157 -0.0085826410659296023 0.014706857789849027 0.020124401522155295 -0.025760293870369946 -0.047548260911686624 -0.061438592756864099 0.068053375640759847 0.1388808156831855 -0.16545457399447924 0.027251291038243697 -0.1561703521443871 0.014830322456216564 0.10737904393215443 0.11939529804643696 -0.14621781252674546 -0.11905169669916754 -0.027607957138782481 -0.11254555156876887 -0.11806386825323226
leaf_weight=8.8313630521297508 9.4717342257499677 7.0484395921230334 8.0987634658813459 7.5225197970867139 9.9073157906532305 8.6187267005443555 22.00200292468071 5.4775963574647903 5.1490148305892944 11.968137517571448 5.5913365483283988 9.8011220246553403 69.309337615966797 5.082912340760231 31.067784324288368 8.9671107828617078 4.7537706643342963 4.52428489923477 7.0777761936187735
leaf_count=39 38 29 34 31 41 38 92 23 22 50 23 40 300 21 145 40 21 20 33
internal_value=-9.30275e-05 0.0397341 0.0629509 -0.0333463 0.0789589 -0.102748 0.032161 0.0436112 -0.0661774 -0.0315149 -0.000628945 -0.047286 0.0982501 0.0585702 -0.117493 -0.126808 -0.0873699 -0.140709 -0.140994
internal_weight=250.271 180.314 136.841 43.4729 109.317 69.9569 31.9093 13.0001 30.4728 20.7995 27.5238 15.3925 77.4081 12.1314 60.4852 51.8664 13.7209 9.6733 38.1456
internal_count=1080 765 580 185 467 315 133 54 131 89 113 63 334 50 277 239 61 42 178
is_linear=0
shrinkage=0.1


Tree=6
num_leaves=19
num_cat=0
split_feature=13 9 0 12 17 13 8 14 8 7 12 7 1 10 11 5 17 13
split_gain=86.2329 24.1521 18.3994 15.2749 13.517 12.2719 11.6651 11.085 11.0005 9.38703 4.50661 4.42529 3.73842 5.28326 8.16175 2.99854 0.176706 0.054002
threshold=0.37923725210854392 0.21595300751413304 -1.0624903078622907 -0.29641556011491338 1.1093852637410329 -0.78404849094410123 -0.34448122348641658 -0.8110227307711575 -0.33994136481104426 -1.7483891903613504 -0.2400110422290819 0.13080404111827351 -0.70731255973554397 -0.74085660022517186 0.50157169985597272 -0.50142165962625007 -0.43284568255373629 0.70625583684656312
decision_type=2 2 2 2 2 2 2 2 2 2 2 2 2 2 2 2 2 2
left_child=1 2 5 8 6 -1 -4 -3 -2 -9 -6 -11 16 14 -14 -15 -5 -18
right_child=3 7 4 12 10 -7 -8 9 -10 11 -12 -13 13 15 -16 -17 17 -19
leaf_value=0.012982480529352657 -0.092164051783968165 -0.033029128785783145 -0.022863000837778785 -0.12215283163613262 -0.013877268726526629 -0.18719271249992087 0.061791190867463631 -0.0073521956123425384 0.10658582646080668 0.1289784151827596 -0.14875281791428774 0.027267149591170839 0.041951780288372632 -0.051065185151842857 -0.1167099087307296 -0.13006806403138133 -0.15298501898968375 -0.14036395832543233
leaf_weight=5.2953633219003677 4.9808249622583389 6.611985281109809 22.17671936750412 4.957617953419688 4.7535828202962875 7.2635041326284391 61.193635523319244 6.668970212340354 6.3164000958204252 44.146676823496819 5.1734989285469037 4.736594706773757 6.5924923717975599 6.1204057335853568 6.3797806352376938 22.340290278196338 4.4687199890613583 14.045880496501921
leaf_count=22 20 28 96 24 20 30 263 28 26 197 22 21 30 28 30 106 20 69
internal_value=-0.000120639 0.0398965 0.0108424 -0.0883555 0.0261386 -0.10279 0.039273 0.0893714 0.0189591 0.10394 -0.0841677 0.119123 -0.107034 -0.0889706 -0.0360782 -0.113079 -0.13892 -0.14341
internal_weight=244.223 168.021 105.856 76.2024 93.2974 12.5589 83.3704 62.1642 11.2972 55.5522 9.92708 48.8833 64.9052 41.433 12.9723 28.4607 23.4722 18.5146
internal_count=1080 727 453 353 401 52 359 274 46 246 42 218 307 194 60 134 113 89
is_linear=0
shrinkage=0.1


Tree=7
num_leaves=19
num_cat=0
split_feature=13 4 18 14 13 6 6 5 10 1 12 1 11 12 16 18 3 12
split_gain=73.0043 23.0553 14.7088 13.1338 11.5773 19.762 11.4089 9.05511 7.36961 13.3131 7.29546 6.12536 5.90185 4.78459 2.12242 1.48786 0.568884 0.913929
threshold=0.49315238392829858 -0.12572404111266153 -1.1464825175437514 0.82954532772025058 -0.61444143466248613 -0.82151629707252283 0.78654822322749618 -0.50142165962625007 -0.74085660022517186 -0.2193375267144376 0.36529601540443418 -0.55500177772826664 0.2724522822408787 -0.53663434473880056 -0.0068873798832169162 -0.98568970649186816 -0.29922797179602589 -1.0000000180025095e-35
decision_type=2 2 2 2 2 2 2 2 2 2 2 2 2 2 2 2 2 2
left_child=1 3 -3 6 11 -6 13 10 9 15 -2 -4 -11 -1 -8 -9 -10 -18
right_child=7 2 4 -5 5 -7 14 8 16 12 -12 -13 -14 -15 -16 -17 17 -19
leaf_value=-0.024425154943080941 0.093692034060615104 -0.075548325897595886 0.034808470361177492 0.12482480539535368 -0.084291567215943858 0.059469606685699429 -0.0089514416179201275 -0.073310105532034361 -0.10435527273097363 0.11426710591439034 -0.091735864835756534 0.11236959998743888 -0.050480608561199486 -0.1136465066401323 0.084035396207108051 -0.14306350993268355 -0.18125952824510538 -0.13307253318367615
leaf_weight=8.9413484185934049 4.449019640684126 8.1986234039068204 13.119998469948767 4.7933884859085074 11.649110987782477 53.369343921542168 4.5654033124446869 4.4347051084041587 4.9341200292110434 4.5439306646585447 4.056282714009285 45.473885804414749 4.1699192523956299 18.336195707321171 5.3092161267995817 9.8500548005104083 4.7303284108638755 23.4386160671711
leaf_count=39 20 34 58 20 51 239 20 22 24 20 20 203 20 79 22 49 20 120
internal_value=-0.000132965 0.0336131 0.0541617 -0.0309594 0.0627648 0.0337125 -0.0510588 -0.090891 -0.105468 -0.0619851 0.0052592 0.0950026 0.0354289 -0.0844005 0.0410441 -0.121409 -0.135678 -0.141164
internal_weight=238.363 173.757 131.811 41.9456 123.612 65.0185 37.1522 64.607 56.1017 22.9986 8.5053 58.5939 8.71385 27.2775 9.87462 14.2848 33.1031 28.1689
internal_count=1080 765 585 180 551 290 160 315 275 111 40 261 40 118 42 71 164 140
is_linear=0
shrinkage=0.1


Tree=8
num_leaves=16
num_cat=0
split_feature=13 9 18 12 8 3 12 16 13 5 18 14 8 16 16
split_gain=61.7724 18.8708 13.8392 12.2027 14.172 9.23248 10.8794 9.89911 6.77683 9.69321 10.362 6.56672 4.27018 1.83987 1.3334
threshold=0.21759298659474283 -0.68858960328851493 -1.1464825175437514 -0.28062078805097962 -0.34328314551796418 -0.10930894879431699 0.54798497186633732 -0.78497835906917934 0.62954212130769294 1.1840753677114668 0.33865074526844513 0.21369997782852959 -0.33714772508458718 0.79964080987815966 -0.9878218866702807
decision_type=2 2 2 2 2 2 2 2 2 2 2 2 2 2 2
left_child=1 11 -3 4 -2 7 -7 -4 9 10 -5 12 -1 14 -10
right_child=3 2 5 8 -6 6 -8 -9 13 -11 -12 -13 -14 -15 -16
leaf_value=-0.14557120204077742 -0.11957397352225825 -0.067264724720641197 -0.0064455123996961169 -0.13921912622840155 0.088534464473645477 0.046836210219987837 -0.080159886506369252 0.099521847858563162 -0.076970685956460241 0.065911025794902475 0.040576026665487687 0.042854928466280813 -0.031635620265141572 -0.066725867135752653 -0.12779458107474959
leaf_weight=7.3429714739322671 5.1161321252584449 9.2957858443260175 10.373456642031668 10.50647869706154 9.0796280354261381 47.465041369199753 7.8631498962640753 58.701523900032043 6.1737847924232439 5.9939143806695929 4.6127451360225669 4.7113311737775794 5.958953097462655 8.0233391374349576 31.500446006655697
leaf_count=33 21 39 46 47 39 210 34 275 30 26 20 20 25 39 176
internal_value=-0.000160442 0.0374866 0.0504321 -0.0706674 0.0135325 0.0592267 0.0287877 0.083608 -0.088558 -0.0417025 -0.0843652 -0.0585978 -0.0945307 -0.110206 -0.119466
internal_weight=232.719 151.712 133.699 81.0065 14.1958 124.403 55.3282 69.075 66.8107 21.1131 15.1192 18.0133 13.3019 45.6976 37.6742
internal_count=1080 682 604 398 60 565 244 321 338 93 67 78 58 245 206
is_linear=0
shrinkage=0.1


Tree=9
num_leaves=20
num_cat=0
split_feature=13 9 0 12 6 3 1 13 5 3 14 10 9 11 12 14 3 12 14
split_gain=52.1425 18.0679 14.521 12.4439 10.8817 10.602 9.34934 8.22848 7.90467 7.13489 7.74248 6.80126 11.9744 9.04905 5.63923 4.74153 0.545641 0.637258 0.0235205
threshold=0.49315238392829858 -0.27646598823933111 -1.1926428097044359 0.67227976061490236 -0.093683907154787846 -1.0000000180025095e-35 -0.6778795198122779 -0.43261794408572146 -0.50142165962625007 -0.22326036259534235 -0.20107589594957534 -0.74085660022517186 -0.86164772132901957 0.67894020923648268 0.36529601540443418 -0.76940866425332033 -0.29922797179602589 0.043430778721285306 -0.17514174903536153
decision_type=2 2 2 2 2 2 2 2 2 2 2 2 2 2 2 2 2 2 2
left_child=1 2 -1 9 7 -5 -6 -4 14 15 -11 12 18 -14 -2 -3 -13 -18 -10
right_child=8 3 4 5 6 -7 -8 -9 11 10 -12 16 13 -15 -16 -17 17 -19 -20
leaf_value=-0.17422603301236997 0.087382644471817594 0.015998768808267956 0.014192763808511054 0.056551515623973238 -0.076490997696035262 -0.15620666118742407 0.060872775470407016 -0.091625338582580429 -0.13816221413956173 -0.012646756893969239 0.076514310757360038 -0.094389784759258577 0.081088720374958886 -0.10880324624703451 -0.080068776710656472 0.10744792671593664 -0.16621250203616611 -0.124692997938581 -0.12816731055833699
leaf_weight=4.994506135582923 4.40153820812702 6.5887974500656119 13.689572572708132 4.5566186606884003 5.9004909247159949 4.8193245232105237 30.919278770685196 15.864562228322027 3.7737715393304825 17.458167254924774 22.028094410896301 4.5235329121351233 7.5665388405322975 3.7548472583293915 3.7031871527433395 40.64398530125618 4.5006280094385245 20.694272145628929 6.2601693421602267
leaf_count=22 20 30 62 21 26 21 135 71 20 77 99 24 34 20 20 201 20 120 37
internal_value=-0.000188288 0.028325 -0.0097896 0.0566322 0.00258392 -0.0528082 0.0388598 -0.04261 -0.0808753 0.0684648 0.0370933 -0.0954343 -0.052386 0.0181092 0.0108712 0.0946911 -0.126368 -0.13211 -0.131926
internal_weight=226.642 167.463 71.3684 96.095 66.3739 9.37594 36.8198 29.5541 59.1785 86.719 39.4863 51.0738 21.3553 11.3214 8.10473 47.2328 29.7184 25.1949 10.0339
internal_count=1080 765 316 449 294 42 161 133 315 407 176 275 111 54 40 231 164 140 57
is_linear=0
shrinkage=0.1


Tree=10
num_leaves=19
num_cat=0
split_feature=13 9 0 12 8 8 7 13 13 13 5 19 14 19 7 16 2 16
split_gain=44.6967 15.3521 11.2506 10.1136 10.7694 8.79223 8.43433 8.33259 6.49054 6.02379 6.86126 6.77631 5.5285 4.8642 4.22607 1.98861 3.5764 1.53019
threshold=0.21759298659474283 0.21595300751413304 -1.0624903078622907 -0.29641556011491338 -0.34328314551796418 -0.34448122348641658 -1.7483891903613504 -0.78404849094410123 -1.1902694479178708 0.62954212130769294 1.3095670181808321 -0.18029013555388335 -0.8110227307711575 -0.54649850627609375 0.13080404111827351 0.58517075906587435 0.94713121128529687 -0.9878218866702807
decision_type=2 2 2 2 2 2 2 2 2 2 2 2 2 2 2 2 2 2
left_child=1 2 7 4 -2 13 -3 -1 -7 10 11 -5 -8 -4 -14 17 -17 -11
right_child=3 6 5 9 -6 8 12 -9 -10 15 -12 -13 14 -15 -16 16 -18 -19
leaf_value=0.0075870135629592314 -0.10182321187122145 -0.027172425983861378 0.036130607709475397 -0.11019094014867854 0.089285643287327895 0.12125007945108897 -0.0070590639118053708 -0.16555025240490714 0.026991053731139348 -0.068047102628384246 0.059483331268385398 0.036095916607115232 0.11272726890708636 -0.063310925188890643 0.0087394934160387166 -0.01116698066489096 -0.1328920146583373 -0.12509747849700603
leaf_weight=5.102390244603157 4.6815168261528015 7.1124585270881644 7.1566650420427349 11.507143139839172 7.9664557576179487 8.5865709483623487 5.2475124001502982 6.1063552945852262 48.954906314611435 5.7776480764150611 5.5210254341363898 4.368692785501481 37.353920504450798 15.732147976756094 4.3648324310779563 5.6744796931743604 4.2004245817661285 25.239341750741008
leaf_count=22 20 31 31 53 35 42 23 27 222 30 24 21 191 72 21 31 23 161
internal_value=-0.000217101 0.0320584 0.00712391 -0.0629782 0.0185487 0.0202041 0.074311 -0.0867356 0.0410568 -0.0795325 -0.0365419 -0.0699359 0.0896795 -0.0322185 0.101848 -0.102028 -0.0629444 -0.11447
internal_weight=220.654 145.718 91.639 74.9367 12.648 80.4303 54.0787 11.2087 57.5415 62.2888 21.3969 15.8758 46.9663 22.8888 41.7188 40.8919 9.8749 31.017
internal_count=1080 682 416 398 55 367 266 49 264 343 98 74 235 103 212 245 54 191
is_linear=0
shrinkage=0.1


Tree=11
num_leaves=21
num_cat=0
split_feature=13 5 6 9 6 3 12 0 1 12 1 8 17 13 12 12 13 8 17 13
split_gain=38.8203 22.1392 16.7284 14.8024 11.8551 10.6477 10.4209 14.4961 9.03638 9.06575 7.44021 3.58235 3.23458 3.64936 2.89121 2.16442 5.10598 1.53322 1.00448 0.599428
threshold=-0.1585488126122501 -0.520400662748155 -0.89693960049564525 -0.69784331371175579 -0.010930454942812756 -0.67906601779944376 0.64988946211369036 -0.80218530417800016 -0.53564733943179543 0.49249221021123257 -1.0759706557976931 -0.32715726098392856 -0.32198311077853159 0.2706386249444474 -0.67272211662036441 0.4777328755177172 0.52518996103240367 -0.34083252680124637 -0.3602382785294363 0.25242955294895719
decision_type=2 2 2 2 2 2 2 2 2 2 2 2 2 2 2 2 2 2 2 2
left_child=3 2 -2 14 15 10 7 -6 11 -10 -5 -7 -4 -14 -1 19 -17 -8 -12 -3
right_child=1 4 12 5 6 8 17 -9 9 -11 18 -13 13 -15 -16 16 -18 -19 -20 -21
leaf_value=-0.007386280137301653 -0.090804749487400735 -0.16744014405988694 0.14162836961383549 -0.0070775521069899082 -0.12324318382844053 -0.12936788629807308 -0.13556504674872213 0.038349798654028738 0.05725393017608741 -0.082732316751464752 0.099056892251576004 -0.001805406702508538 0.089317359524801479 -0.026017601089727966 -0.11386084309922112 0.0012794086311007776 -0.12427625105522858 -0.071086878785456858 0.13708404711780978 -0.12735541049672025
leaf_weight=4.2768313735723495 7.6905920505523708 5.3241892755031612 6.398877874016768 5.5041022896766654 7.4178150892257682 4.3119187951087952 7.8179796189069748 22.063969567418102 51.388207033276558 5.0839830338954917 12.572245463728907 4.4980920255184156 9.1902889162301964 3.9108876436948767 6.3172993063926679 4.5247162729501715 11.398331224918364 6.9809247404336912 15.522789314389227 12.463987648487089
leaf_count=20 38 24 32 25 40 20 46 101 244 22 66 20 47 20 29 21 75 41 80 69
internal_value=-0.000221918 -0.0436072 0.0340934 0.0414621 -0.0706962 0.0534981 -0.0366784 -0.00230808 0.0299564 0.0446515 0.0992388 -0.0642388 0.0833517 0.0548882 -0.0708773 -0.11538 -0.0885982 -0.105149 0.120067 -0.139353
internal_weight=214.658 105.183 27.1906 109.475 77.9919 98.8813 44.2807 29.4818 65.2822 56.4722 33.5991 8.81001 19.5001 13.1012 10.5941 33.7112 15.923 14.7989 28.095 17.7882
internal_count=1080 554 137 526 417 477 228 141 306 266 171 40 99 67 49 189 96 87 146 93
is_linear=0
shrinkage=0.1


Tree=12
num_leaves=20
num_cat=0
split_feature=13 5 6 9 6 9 0 3 18 1 1 12 12 17 13 2 18 17 2
split_gain=32.6389 18.7774 14.0134 12.4168 10.6186 9.75358 10.6327 9.00139 6.91548 6.85522 6.47204 5.17775 3.28277 2.89759 3.52403 2.07643 4.24486 1.16124 0.996266
threshold=-0.1585488126122501 -0.520400662748155 -0.89693960049564525 -0.70823843826638455 -0.010930454942812756 -0.66092052312117289 -0.80218530417800016 -0.67906601779944376 -1.1464825175437514 -0.4439985147891114 -1.0759706557976931 -0.47925561439996128 -0.53663434473880056 -0.32198311077853159 0.37923725210854392 -0.6881818301982473 -0.37450124798524703 -0.3602382785294363 1.4285001027874247
decision_type=2 2 2 2 2 2 2 2 2 2 2 2 2 2 2 2 2 2 2
left_child=3 2 -2 12 15 6 -6 10 -9 -10 -5 -7 -1 -4 -15 16 -3 -12 -17
right_child=1 4 13 7 5 11 -8 8 9 -11 17 -13 -14 14 -16 18 -18 -19 -20
leaf_value=-0.0091514260207588519 -0.083559036488331712 0.010622631561075607 0.13469962427405252 -0.0063598978309237905 -0.11176286964358109 0.029344616357007899 0.060378605270119616 -0.072263613533145227 -0.042068964460472598 0.052972244592529374 0.089846832523940337 -0.097605015264862038 -0.12501873338496713 0.084393232167231491 -0.031333452819865416 -0.13397284183597985 -0.13055185577249534 0.13165539929151948 -0.074309748804984047
leaf_weight=4.7378592044115067 7.530295908451083 3.8138967305421829 6.0721865594387117 5.5122164487838736 4.7441272065043476 3.8322348147630718 14.725940771400927 6.2543954104185095 8.9660892188549024 49.420636400580406 12.194143056869509 19.87506340444088 5.0531899034976941 9.0617054551839775 3.7080429494380942 20.014549523591999 4.8235716670751589 14.594524964690207 3.2537357732653609
leaf_count=22 38 19 32 25 29 17 71 27 41 240 67 111 24 48 19 124 26 80 20
internal_value=-0.000230675 -0.0408424 0.0317477 0.0383729 -0.066339 -0.0340117 0.0184342 0.0492125 0.0276722 0.0383774 0.0923193 -0.0770839 -0.0689509 0.0778308 0.0507888 -0.110087 -0.0682159 0.112624 -0.12563
internal_weight=208.188 101.455 26.3722 106.733 75.0831 43.1774 19.4701 96.942 64.6411 58.3867 32.3009 23.7073 9.79105 18.8419 12.7697 31.9058 8.63747 26.7887 23.2683
internal_count=1080 554 137 526 417 228 100 480 308 281 172 128 46 99 67 189 45 147 144
is_linear=0
shrinkage=0.1


Tree=13
num_leaves=18
num_cat=0
split_feature=13 5 6 9 6 12 0 14 17 3 18 16 12 2 18 11 2
split_gain=27.4075 15.8907 11.7853 10.3363 9.61936 8.57488 11.0575 8.04978 9.41043 5.57603 3.32042 3.28178 2.83807 2.0507 3.72762 1.68137 0.981349
threshold=-0.1585488126122501 -0.520400662748155 -0.98564758371873018 -0.70823843826638455 -0.010930454942812756 0.64988946211369036 -0.73710905325692744 -1.0356583595126228 1.3713876303646149 -0.10930894879431699 -0.32381655018178163 -0.084094530624291161 -0.53663434473880056 -0.6881818301982473 -0.37450124798524703 1.4453835275384923 1.4285001027874247
decision_type=2 2 2 2 2 2 2 2 2 2 2 2 2 2 2 2 2
left_child=3 2 -2 12 13 6 -6 -5 9 -9 -4 -12 -1 14 -3 -7 -15
right_child=1 4 10 7 5 15 -8 8 -10 -11 11 -13 -14 16 -16 -17 -18
leaf_value=-0.008245466906434868 -0.083221089483114449 0.0095347997341567545 -0.0054335704230305017 -0.053107645595146448 -0.10302932685389242 -0.11461407631496737 0.037000859491993006 0.086048281535634652 -0.074927909590345801 0.033512450804236371 0.018334983859274272 0.12413596420295209 -0.11698590833804762 -0.13023775673156957 -0.12424779958542341 -0.026494377283008894 -0.069704128834385176
leaf_weight=4.7328585684299469 6.7945782691240337 3.8235832452774048 4.4051531553268495 7.613054394721984 7.7004561573266974 10.831096455454825 21.06631197035313 45.086106285452843 5.3056999593973151 36.605878204107285 4.1088519990444228 10.23401902616023 4.8697596192359907 18.602342411875728 4.5744590833783167 2.7063300535082808 3.1285234093666068
leaf_count=22 35 19 23 35 45 69 96 248 24 173 20 59 24 124 26 18 20
internal_value=-0.000235371 -0.0382069 0.0296116 0.0354634 -0.0621223 -0.031368 -0.000483237 0.0454967 0.0541255 0.0625072 0.070504 0.0938268 -0.0633908 -0.105304 -0.0633373 -0.0969977 -0.121523
internal_weight=202.189 97.9757 25.5426 104.213 72.4331 42.3042 28.7668 94.6107 86.9977 81.692 18.748 14.3429 9.60262 30.1289 8.39804 13.5374 21.7309
internal_count=1080 554 137 526 417 228 141 480 445 421 102 79 46 189 45 87 144
is_linear=0
shrinkage=0.1


Tree=14
num_leaves=21
num_cat=0
split_feature=13 5 6 9 6 0 10 18 3 1 14 17 19 4 16 4 17 6 4 12
split_gain=23.009 13.5104 9.93407 9.45873 8.84974 7.62607 9.80531 6.45686 5.81974 8.15475 5.10717 4.07488 3.79847 2.97807 3.06359 2.68027 2.40499 1.54114 1.05082 0.318843
threshold=-0.1585488126122501 -0.520400662748155 -0.89693960049564525 0.24378602903502775 -0.26097562795742518 -0.67203280233585472 -0.73074828611471765 -1.1464825175437514 -0.73604172469995632 -0.4439985147891114 -0.8110227307711575 -0.27714464701741381 -0.17108707866728537 1.1592283505434084 0.31090957841801131 0.86215814650945699 -0.030440734170804687 -0.21583742962814487 0.55751682790762369 -0.14154417769353653
decision_type=2 2 2 2 2 2 2 2 2 2 2 2 2 2 2 2 2 2 2 2
left_child=3 2 -2 7 18 12 -7 -1 11 -10 -5 -9 -6 14 -12 16 -4 -17 19 -3
right_child=1 4 15 10 5 6 -8 8 9 -11 13 -13 -14 -15 -16 17 -18 -19 -20 -21
leaf_value=-0.092370053833035107 -0.07132737690495318 -0.14675438996197537 0.14731810727971592 -0.023969627343022194 -0.12236896445923987 0.053257513660159329 -0.054812428557283424 0.025744225416856659 -0.065630835215452973 0.02860388288825217 0.12558099499639885 0.12405608216459248 0.0028493283049998552 0.01668555622661488 0.051035453919683928 -0.021759964602068277 0.049720580086413751 0.069249982129008819 -0.057217417534188499 -0.11512279498091925
leaf_weight=5.5850821137428275 7.2041315734386471 4.1693407073617044 5.3844760656356847 4.574871525168418 11.501711063086985 14.405709564685816 20.123474337160591 9.4644970893859881 13.032221056520937 31.091756612062454 17.937322430312641 7.6026828736066809 3.0689515992999068 4.7700472325086585 7.959262251853942 3.8221270143985748 4.7541289031505567 3.6256508380174628 2.8570468351244918 13.520360380411146
leaf_count=25 38 21 30 21 75 70 114 51 63 149 102 40 19 27 48 22 25 22 16 102
internal_value=-0.000249509 -0.0358195 0.0275776 0.0326774 -0.0583856 -0.0353262 -0.00972523 0.0105569 0.0199513 0.000771223 0.0745917 0.0695379 -0.0959948 0.0892952 0.10267 0.0680934 0.101553 0.0225446 -0.11349 -0.122578
internal_weight=196.455 94.4371 24.7905 102.018 69.6466 49.0998 34.5292 66.7762 61.1912 44.124 35.2415 17.0672 14.5707 30.6666 25.8966 17.5864 10.1386 7.44778 20.5467 17.6897
internal_count=1080 554 137 526 417 278 184 328 303 212 198 91 94 177 150 99 55 44 139 123
is_linear=0
shrinkage=0.1


Tree=15
num_leaves=18
num_cat=0
split_feature=13 8 12 12 16 17 15 10 13 11 9 14 17 16 4 12 16
split_gain=19.5664 11.6396 8.82621 7.17964 6.83965 6.07171 5.77682 5.46038 5.33629 4.90067 4.65942 4.60434 2.23723 1.68381 0.672888 0.37861 0.297273
threshold=0.62954212130769294 -0.34458517532216043 -0.18120339207819725 -0.87293987708806908 -1.1532369805968778 1.1093852637410329 0.14298440128642043 0.16031055357298082 -0.95616317635660686 0.39336332454054246 -0.67897329549379737 0.37655098602232534 1.3063643418976685 -0.9878218866702807 -1.0000000180025095e-35 1.234173527941433 0.50148388506200081
decision_type=2 2 2 2 2 2 2 2 2 2 2 2 2 2 2 2 2
left_child=1 6 -2 7 -5 -6 9 8 -3 10 -1 -8 13 -4 -11 -15 -9
right_child=2 3 12 4 5 -7 11 16 -10 14 -12 -13 -14 15 -16 -17 -18
leaf_value=-0.1290079837805384 0.04072591954029442 0.12699097796644604 -0.042525966915379076 -0.095809616189625135 0.034853701405709613 -0.046667766581892027 -0.026583784831834652 0.14228572743554399 -0.0022955440902523694 -0.086040926288633066 -0.0023077304940520744 0.096449613903735451 -0.012518745005865035 -0.11871154053008265 -0.14157553447898819 -0.09132733475985011 0.10732940604150164
leaf_weight=3.6237152367830303 6.4229195713996878 4.6455956250429145 4.5444644093513551 4.9860973656177512 73.61365719139576 10.430803924798964 7.2722253501415235 7.4725313484668714 10.206702746450903 3.7947615087032318 14.584250517189504 5.2287497594952583 3.452793523669242 14.678359448909761 5.1330621838569623 7.6959979683160773 3.6071435660123825
leaf_count=22 31 24 29 24 392 53 35 40 52 22 71 26 24 122 27 65 21
internal_value=-0.000237785 0.0153606 -0.0657774 0.0314721 0.0179849 0.024736 -0.0313693 0.0777768 0.0381435 -0.057281 -0.0275234 0.0248771 -0.0883005 -0.0980208 -0.117971 -0.109292 0.130905
internal_weight=191.394 154.599 36.7945 114.963 89.0306 84.0445 39.6368 25.932 14.8523 27.1358 18.208 12.501 30.3716 26.9188 8.92782 22.3744 11.0797
internal_count=1080 809 271 606 469 445 203 137 76 142 93 61 240 216 49 187 61
is_linear=0
shrinkage=0.1


Tree=16
num_leaves=19
num_cat=0
split_feature=13 18 14 1 0 1 1 15 3 18 12 16 2 13 16 8 11 12
split_gain=16.8335 8.14654 7.80939 7.7996 6.75984 6.21245 8.62269 6.09129 5.62704 5.5078 4.38185 4.18829 2.71204 1.72398 1.62772 1.01564 0.166166 0.0296994
threshold=0.49315238392829858 -1.1464825175437514 -0.8110227307711575 -0.55500177772826664 -0.21649904588834618 -0.2193375267144376 0.42398938390555474 -0.081070021814131754 -0.10930894879431699 -0.031666320981183743 -0.19620338909527835 -0.16690304374202639 0.57949439038735073 0.93370910431574905 0.84240580634701645 -0.31965105360448109 0.81951182988559168 0.043430778721285306
decision_type=2 2 2 2 2 2 2 2 2 2 2 2 2 2 2 2 2 2
left_child=1 11 4 9 10 14 7 -7 -5 -4 -3 -1 -9 -8 15 17 -15 -2
right_child=5 2 3 8 -6 6 13 12 -10 -11 -12 -13 -14 16 -16 -17 -18 -19
leaf_value=-0.0095187521462369584 -0.12725066345964658 0.055642198846966168 0.032022723146991401 0.078213354898351004 -0.11307075207937589 -0.063657835286542369 -0.029110511557414044 0.1513094660028384 0.025632722195388313 -0.0562740085954931 -0.05134458960154123 -0.13141308835068682 0.03181360047646424 -0.12747856699902091 -0.029721551165049476 -0.06526071271784871 -0.094842909143662515 -0.11616002984573048
leaf_weight=6.1830214262008667 3.1549625322222754 8.2549184262752533 14.414404667913916 37.475789703428745 6.9027344584465018 3.5880477577447891 3.7358343154191953 3.9867780357599276 44.545646533370018 13.85516471415758 7.1388955563306817 5.1807290837168676 3.6273242756724358 3.8857002556324005 3.4472036734223357 4.820330075919629 2.6067171841859818 10.288534402847288
leaf_count=28 21 41 73 235 34 26 23 22 221 73 35 25 21 27 23 38 20 94
internal_value=-0.000252662 0.0161683 0.0231328 0.0340448 -0.0308442 -0.055045 -0.0168497 0.043762 0.0496569 -0.0112523 0.00602698 -0.0650903 0.0943822 -0.0832326 -0.0927465 -0.104642 -0.114375 -0.118763
internal_weight=187.093 143.951 132.588 110.291 22.2965 43.1414 21.4304 11.2022 82.0214 28.2696 15.3938 11.3638 7.6141 10.2283 21.711 18.2638 6.49242 13.4435
internal_count=1080 765 712 602 110 315 139 69 456 146 76 53 43 70 176 153 47 115
is_linear=0
shrinkage=0.1


Tree=17
num_leaves=19
num_cat=0
split_feature=13 5 6 6 4 1 18 9 0 16 19 16 18 16 8 17 11 13
split_gain=15.2824 10.1197 8.39174 7.7953 7.68342 9.97135 6.44219 7.05905 5.55577 7.20979 5.37955 4.5502 2.31517 2.67525 1.89335 0.670274 0.502346 0.233356
threshold=-0.1585488126122501 -0.520400662748155 -0.98564758371873018 -0.38546654192862817 0.77501310859085093 1.392068659061122 -1.1703563036770475 -0.69784331371175579 -0.67203280233585472 0.077576242449894875 -0.17108707866728537 -0.67025295672660834 -0.32381655018178163 -0.079485791933990579 -0.3395082154957601 -0.63042501649606664 -0.50636670814024776 0.11230543168851208
decision_type=2 2 2 2 2 2 2 2 2 2 2 2 2 2 2 2 2 2
left_child=4 2 -2 16 5 6 -1 -8 10 -10 -5 -6 -4 -14 -13 -16 -3 -18
right_child=1 3 12 8 11 -7 7 -9 9 -11 -12 14 13 -15 15 -17 17 -19
leaf_value=-0.090785150682710425 -0.072990764977641412 -0.078842343831211747 -0.0033696410525832564 -0.11794219282837402 -0.0038600420235399818 -0.14290910982132307 -0.055802715844135764 0.041784735976933177 0.021593306473497817 -0.074541121949055877 0.031359783158451088 0.039074006645101939 0.01790216366101019 0.11530548532948107 0.069886655009933449 0.12064152464270279 -0.15090524895334781 -0.11714498337113427
leaf_weight=4.952851489186286 6.253917500376704 2.982021890580655 4.0389451161027017 11.006123460829256 6.1049049198627499 4.0455663204193106 8.648327596485613 51.867591023445129 23.135814361274242 11.770062394440172 3.0911126211285582 4.8106354475021389 4.1897135823965099 8.6239217072725207 3.2525295689702114 13.008007295429699 2.6529710739850971 8.9699123874306661
leaf_count=23 35 20 23 82 32 20 44 274 132 67 20 29 21 58 21 83 14 82
internal_value=-0.000261496 -0.0307429 0.0259365 -0.0513325 0.0270751 0.00944956 0.0188644 0.0278385 -0.0322209 -0.0108227 -0.0852046 0.0721598 0.062648 0.0834572 0.0941848 0.110489 -0.115457 -0.124851
internal_weight=183.405 86.7145 23.1065 63.608 96.6904 69.5143 65.4688 60.5159 49.0031 34.9059 14.0972 27.1761 16.8526 12.8136 21.0712 16.2605 14.6049 11.6229
internal_count=1080 554 137 417 526 361 341 318 301 199 102 165 102 79 133 104 116 96
is_linear=0
shrinkage=0.1


Tree=18
num_leaves=22
num_cat=0
split_feature=12 1 3 16 8 0 9 6 19 5 9 17 3 13 8 4 7 10 13 12 1
split_gain=13.19 9.96178 7.24556 6.61738 8.00482 6.13264 5.62707 8.12206 4.42878 4.39134 3.22048 6.12951 7.42696 2.6014 1.75242 1.74364 1.66519 1.65812 0.115204 0.0445946 0.00549274
threshold=0.67227976061490236 -0.69183454806881273 -0.71704982239978554 -0.83568479806675589 -0.3422658505214935 0.75964471792774402 0.26043498738403226 -0.14363265415142132 -0.30568410422514242 0.27426090180856522 -0.54732243971577665 0.25205070705660509 0.63137524091234798 -0.34865636396449023 -0.32307294142507459 0.54277116565847161 1.1153928530597039 -0.53673356882445689 0.60177200373350959 1.1370560866751187 -0.4256132552646123
decision_type=2 2 2 2 2 2 2 2 2 2 2 2 2 2 2 2 2 2 2 2 2
left_child=1 3 9 17 13 -6 7 -4 -8 15 16 12 -12 -5 19 -3 18 -1 -2 -13 -20
right_child=10 2 6 4 5 -7 8 -9 -10 -11 11 14 -14 -15 -16 -17 -18 -19 20 -21 -22
leaf_value=-0.05507301075202331 -0.13857815518407374 0.12846555255411926 -0.070651118221977116 -0.016702982203963435 0.080879995227910229 -0.058599643651721461 0.0054682761886051378 0.015495774770194379 0.084592042274911905 -0.022665420649760251 0.10100828540571237 -0.13592965588696995 -0.089612809645187128 -0.11508381708380711 -0.029964290269479568 0.069228303696773574 -0.032371324210912739 -0.14496187180846798 -0.11197749312534189 -0.11767678301315723 -0.11812366192698949
leaf_weight=3.3125194236636162 2.5573819577693957 7.9038568362593713 14.262779489159582 4.5908971577882767 10.272989556193354 4.5477802604436866 12.809959731996061 47.037887439131737 15.798550330102442 4.0258580297231665 5.1848412007093447 3.0771759301424044 3.3740481063723564 6.4834657832980138 2.7418885976076091 13.381896473467348 2.7705309838056555 5.3933584690093976 4.9511868208646765 2.3689400628209114 2.0586256384849557
leaf_count=20 15 46 79 24 61 25 70 244 97 21 31 20 22 44 18 99 23 29 55 20 17
internal_value=-0.000246028 0.0117173 0.0258479 -0.0353372 -0.00998036 0.0380804 0.0125425 -0.00454796 0.049163 0.07311 -0.0618722 -0.0333109 0.0258625 -0.0742999 -0.0951645 0.0912244 -0.100641 -0.11076 -0.120411 -0.12799 -0.113782
internal_weight=178.906 149.822 115.221 34.601 25.8951 14.8208 89.9092 61.3007 28.6085 25.3116 29.0846 16.7469 8.55889 11.0744 8.188 21.2858 12.3377 8.70588 9.56719 5.44612 7.00981
internal_count=1080 859 656 203 154 86 490 323 167 166 221 111 53 68 58 145 110 49 87 40 72
is_linear=0
shrinkage=0.1


Tree=19
num_leaves=20
num_cat=0
split_feature=13 5 6 6 16 7 8 8 1 2 11 16 15 6 12 6 0 7 13
split_gain=11.9341 10.5105 12.1679 10.7699 7.53805 6.04602 5.21045 5.97815 5.11256 5.93537 6.52569 3.73885 3.53879 4.7221 3.33233 2.77235 1.84335 2.14113 0.854169
threshold=-0.54895330345316473 -0.520400662748155 -0.98564758371873018 -0.40830199256454003 -0.39254280278798553 1.0671967486987595 -0.22491781364709276 -0.3439006964830007 -0.15878527953630603 -1.2225782564567507 0.22854366221351338 0.42393183472170781 0.2154363055578514 0.82729210594911617 0.68615368079580452 -0.53500934152879687 0.49933971424345319 -0.23801674476700227 0.019073703679941139
decision_type=2 2 2 2 2 2 2 2 2 2 2 2 2 2 2 2 2 2 2
left_child=5 2 4 16 -2 8 7 -5 9 -1 -11 -8 13 -10 15 -4 18 -18 -3
right_child=1 3 14 6 -6 -7 11 -9 12 10 -12 -13 -14 -15 -16 -17 17 -19 -20
leaf_value=-0.09123588737472621 -0.18175705063957429 -0.18156597691084386 0.12902524868863594 -0.043303824456589382 0.0031142836936540992 -0.058155516806532082 -0.041723216909118878 0.025080336009035632 0.11579142411885604 0.065555354605140587 -0.077615286102939579 -0.16323995482665876 0.0043032564288603831 0.010426161763159863 -0.031786003756423306 0.052289711871275547 -0.0127899205959922 -0.12981185099239942 -0.11812259592208202
leaf_weight=4.4924767613410976 3.7637077271938324 2.9486590847373026 6.6231550350785282 23.778223276138302 5.3275542706251127 6.1258967667818061 7.9015308246016485 27.647655069828037 18.38843875378371 15.544081799685957 4.0035775676369658 3.7259977608919144 5.7918923795223227 5.5333648845553389 3.3875535279512397 16.283962056040767 3.3476846665143967 2.9337515756487837 7.5706788301467896
leaf_count=24 19 16 42 154 33 33 49 157 116 86 20 20 34 31 21 106 22 26 71
internal_value=-0.000243494 -0.0190611 0.0263063 -0.0391649 -0.0734209 0.0359716 -0.020208 -0.00653903 0.0466985 0.0124119 0.0362324 -0.0806628 0.0744384 0.0914193 0.0607865 0.0744763 -0.11031 -0.0674451 -0.135906
internal_weight=175.12 115.24 35.3859 79.8542 9.09126 59.8797 63.0534 51.4259 53.7538 24.0401 19.5477 11.6275 29.7137 23.9218 26.2947 22.9071 16.8008 6.28144 10.5193
internal_count=1080 736 221 515 52 344 380 311 311 130 106 69 181 147 169 148 135 48 87
is_linear=0
shrinkage=0.1


Tree=20
num_leaves=17
num_cat=0
split_feature=13 12 8 14 6 5 13 11 5 0 16 2 16 5 3 1
split_gain=10.6526 7.0087 6.35378 6.50918 5.18444 8.05072 6.367 5.09613 5.02662 5.03063 2.61358 4.41343 2.2988 1.60959 0.0864046 0.0135917
threshold=0.62954212130769294 -0.28062078805097962 -0.012091205714442234 1.0437040312425412 -0.84402204658209634 -0.97306365397418138 -0.75319513607619093 -1.0170272844957136 -0.22844065373732431 1.15010222345418 0.58517075906587435 0.94713121128529687 -0.9878218866702807 -1.0000000180025095e-35 -0.69805792009961454 -0.37805303882507502
decision_type=2 2 2 2 2 2 2 2 2 2 2 2 2 2 2 2
left_child=2 -2 3 4 6 -6 -1 14 9 -9 12 -12 -3 -5 -4 -14
right_child=1 10 7 13 5 -7 -8 8 -10 -11 11 -13 15 -15 -16 -17
leaf_value=0.029418234886072467 0.051444398061979729 -0.02691553097351539 0.12001267574873756 0.038888690770347123 0.10054454269944567 -0.004453562083882083 -0.097840071070905144 0.10410379201431086 -0.067581336916159127 -0.040344432308932282 0.045415233496408379 -0.11995119436568553 -0.11031321060840041 0.12257734294333647 0.14229733520710736 -0.11642443559652266
leaf_weight=5.953145474195483 5.2249814718961742 3.8876450359821382 4.3265948891639709 4.3876549229025841 8.00377259403467 83.346074007451534 11.577436275780199 8.1291097775101644 4.102994225919244 3.4275863096117982 3.9455941393971434 2.7310278341174126 7.0578567534685197 4.8258834406733495 2.9102224931120899 7.5135434567928234
leaf_count=32 26 30 33 27 60 454 64 54 24 22 31 23 91 23 16 70
internal_value=-0.000206568 -0.0539375 0.0113638 0.00201633 -0.00481315 0.00474603 -0.0546249 0.0595752 0.0275038 0.0612621 -0.0758433 -0.0222268 -0.0952364 0.0827233 0.128974 -0.113464
internal_weight=171.351 30.3606 140.99 118.094 108.88 91.3498 17.5306 22.8965 15.6597 11.5567 25.1357 6.67662 18.459 9.21354 7.23682 14.5714
internal_count=1080 271 809 660 610 514 96 149 100 76 245 54 191 50 49 161
is_linear=0
shrinkage=0.1


Tree=21
num_leaves=20
num_cat=0
split_feature=13 5 16 6 6 14 3 1 1 13 0 5 19 1 5 4 0 11 13
split_gain=9.51466 6.17075 6.28246 6.4217 6.07065 5.98563 5.18424 8.29166 6.09728 5.37341 4.74916 6.79556 5.0117 3.82822 3.8686 3.0313 2.8332 0.672215 0.115057
threshold=-0.1585488126122501 -0.520400662748155 0.98953244082922842 -0.89693960049564525 -0.38546654192862817 -1.0356583595126228 -0.67906601779944376 -0.53564733943179543 1.4807154531524023 -0.7015225998275576 -0.67203280233585472 1.2468211929461492 -0.17108707866728537 -1.0759706557976931 0.18157452401251031 0.86215814650945699 -0.67203280233585472 -0.5295709232040442 0.11230543168851208
decision_type=2 2 2 2 2 2 2 2 2 2 2 2 2 2 2 2 2 2 2
left_child=5 2 3 -2 17 16 13 9 -9 -8 12 -12 -6 -7 -15 -5 -1 -3 -19
right_child=1 4 -4 15 10 6 7 8 -10 -11 11 -13 -14 14 -16 -17 -18 18 -20
leaf_value=-0.0080746460532700598 -0.092706853842207268 -0.060168357078672387 0.14363630926803217 0.081305790481472115 -0.11362873244212811 -0.0081657313266775226 -0.14882230401307528 0.044644550493798653 -0.067825383621326341 -0.0024512496746836618 -0.03514748041884818 0.064855342037692873 0.034987264632602669 0.10369274741545409 -0.025747082978608418 -0.022419867464253857 -0.12485539554560897 -0.13900879174543096 -0.11293758735689506
leaf_weight=4.8581491783261299 5.5039689764380499 2.4350562617182723 3.4810392111539832 6.8147276118397713 9.600147966295479 5.3357832133770016 4.5883219242095947 40.332956090569496 5.4744258746504775 5.5319442898035032 23.562374517321587 9.5490225926041585 2.9714322313666335 17.831346444785598 2.652433216571807 4.8033164814114571 3.629562705755232 2.229610972106455 7.0299123078584671
leaf_count=24 35 19 23 45 82 26 23 224 30 29 147 52 20 137 14 34 19 14 83
internal_value=-0.000192263 -0.0257756 0.0211685 -0.0037302 -0.0426322 0.0219168 0.0302158 0.0131051 0.0312033 -0.0688129 -0.0261748 -0.00630759 -0.0785017 0.0672792 0.0869317 0.0384219 -0.0580131 -0.10692 -0.119215
internal_weight=168.216 77.9806 20.6031 17.122 57.3776 90.2349 81.7472 55.9276 45.8074 10.1203 45.683 33.1114 12.5716 25.8196 20.4838 11.618 8.48771 11.6946 9.25952
internal_count=1080 554 137 114 417 526 483 306 254 52 301 199 102 177 151 79 43 116 97
is_linear=0
shrinkage=0.1


Tree=22
num_leaves=20
num_cat=0
split_feature=8 12 17 19 15 17 9 14 3 10 13 15 17 12 7 6 13 16 0
split_gain=8.48854 8.02361 5.47862 6.81957 6.81048 6.45784 4.64665 4.39313 5.16861 4.35516 4.22568 5.06385 3.64367 3.00325 2.98963 2.52268 2.45042 0.377148 0.0955653
threshold=-0.34458517532216043 -0.87293987708806908 1.1093852637410329 -0.58402730807320957 0.06660065627954502 -0.28596000045552189 0.28691270411491021 1.1019543626801196 -0.43217128789722214 0.16031055357298082 -0.95616317635660686 -0.19636887683745805 1.9454890120064146 0.24760758969835453 0.17158634389951502 0.21399892635634679 -0.26709802754859852 0.55605008608607831 -0.5418803004937095
decision_type=2 2 2 2 2 2 2 2 2 2 2 2 2 2 2 2 2 2 2
left_child=7 9 3 14 6 -5 -4 8 16 10 -2 -12 15 -6 -3 -10 -1 18 -11
right_child=1 2 4 5 13 -7 -8 -9 12 17 11 -13 -14 -15 -16 -17 -18 -19 -20
leaf_value=0.060290429792814161 0.11822094514783302 -0.020433920442455483 -0.055737843990165542 -0.010318772457351565 -0.19286008911787306 0.04796377728698558 0.11584739213196991 0.070495772930446995 -0.10124825351408917 0.14473493298038112 -0.10271357906776966 0.049029749141153114 0.044376841825468478 -0.062045581467376203 -0.15433804305183607 -0.040146181185874069 -0.034854995028153118 0.087743939726389802 0.12066345447796299
leaf_weight=5.5039601996541023 3.9757866486906996 3.4015866443514815 3.7711351178586465 37.320884380489588 3.4362409561872482 38.750946801155806 2.7141827344894409 3.5093137770891181 17.237600117921836 3.4620411321520805 3.3903769403696051 6.2593130320310619 2.6951651573181143 3.5870438665151596 3.2704263888299465 11.113178126513956 5.3263513781130296 2.510994166135788 3.1498254761099798
leaf_count=33 24 22 26 236 18 252 19 20 139 18 17 36 15 26 25 71 38 20 25
internal_value=-0.00018165 0.0138519 0.00122843 0.0108682 -0.0578178 0.0193703 0.0160726 -0.0369776 -0.045984 0.0672642 0.0314614 -0.00428461 -0.0667342 -0.126048 -0.0860698 -0.0772969 0.0134979 0.120738 0.133268
internal_weight=164.386 119.001 96.2524 82.7438 13.5086 76.0718 6.48532 45.3856 41.8763 22.7483 13.6255 9.64969 31.0459 7.02328 6.67201 28.3508 10.8303 9.12286 6.61187
internal_count=1080 764 624 535 89 488 45 316 296 140 77 53 225 44 47 210 71 63 43
is_linear=0
shrinkage=0.1


Tree=23
num_leaves=18
num_cat=0
split_feature=12 1 12 3 5 5 16 13 0 17 5 19 6 11 4 15 8
split_gain=7.7305 6.23449 5.71897 4.91158 4.63466 4.72903 4.63135 4.09593 3.68815 4.70011 3.51168 3.3883 4.09718 1.68812 1.68026 0.46464 0.00445761
threshold=0.59535699303644518 -0.69183454806881273 -1.4365561068821979 -0.71704982239978554 -0.42795679320302971 1.3247727247881314 -0.51858886453151176 0.62954212130769294 -0.41172779865156417 0.25205070705660509 0.61768946017779569 1.1047869159337138 -0.14363265415142132 1.7320569429994748 0.54277116565847161 0.43310223559538247 -0.33688973682728285
decision_type=2 2 2 2 2 2 2 2 2 2 2 2 2 2 2 2 2
left_child=1 2 -1 10 6 -6 -4 8 -2 -10 14 12 -5 15 -3 16 -9
right_child=7 3 4 11 5 -7 -8 13 9 -11 -12 -13 -14 -15 -16 -17 -18
leaf_value=0.092501190459218716 -0.075702495968134248 0.11740148541215789 -0.087042849977991166 -0.030577152215867227 -0.1165729774482885 0.035040143537565349 0.037633202499384712 -0.10963649460420806 0.071903166043471925 -0.062693701804928004 -0.03570074010441511 0.08642578870399624 0.020539370341204677 0.0046966427438436134 0.055650579045406247 -0.05500843401717273 -0.11401645509770551
leaf_weight=3.3944174274802235 6.2094582170248058 7.6252732723951402 4.4681293889880171 22.331259936094284 10.670819062739605 2.5486836917698374 8.9428642094135338 5.2416506819427005 6.8179049193859118 4.1880950331687927 2.9652117118239394 5.5301795974373809 52.651516430079937 1.6795764937996853 10.438828095793722 1.7166623063385476 4.1738601960241786
leaf_count=17 38 49 26 134 82 17 54 73 34 29 16 37 298 20 94 18 44
internal_value=-0.000158946 0.01029 -0.0297421 0.0221271 -0.0453237 -0.0873424 -0.00390501 -0.0459422 -0.0140809 0.0206852 0.0651607 0.0108871 0.00531592 -0.0887551 0.0817171 -0.102855 -0.111578
internal_weight=161.594 131.567 30.0249 101.542 26.6305 13.2195 13.411 30.0272 17.2155 11.006 21.0293 80.513 74.9828 12.8117 18.0641 11.1322 9.41551
internal_count=1080 824 196 628 179 99 80 256 101 63 159 469 432 155 143 135 117
is_linear=0
shrinkage=0.1


Tree=24
num_leaves=17
num_cat=0
split_feature=13 8 1 1 14 12 15 6 12 17 14 14 8 14 1 1
split_gain=6.89252 5.22025 5.67648 5.72132 5.45305 3.59164 3.58415 2.91387 2.70609 4.16438 2.07555 4.00591 1.36973 0.39736 0.0113592 0.00231603
threshold=0.94496120942023187 -0.012091205714442234 1.9155068717905859 -0.69183454806881273 -0.38203054913219248 -0.28062078805097962 0.83527186409782195 -0.20602173813392341 -0.50717682642767203 -0.12382988805449203 -0.11940653845255111 -0.25415257443185962 -0.31965105360448109 0.31443068473091768 0.31001493435962307 -0.9035226496871237
decision_type=2 2 2 2 2 2 2 2 2 2 2 2 2 2 2 2
left_child=1 2 3 7 -5 -2 8 -1 13 -10 11 12 -7 -3 15 -12
right_child=5 6 -4 4 -6 10 -8 -9 9 -11 14 -13 -14 -15 -16 -17
leaf_value=-0.017197742540360987 0.039108172782132251 0.12857624096925424 -0.12864635701717347 -0.013673858965863079 0.036000630311534575 -0.11328297994322037 -0.05333505215221284 -0.091970121506904368 -0.035596901164717497 0.08790120583762849 -0.10712830776212492 0.092849342426094106 -0.0045611395663168941 0.080579129767814284 -0.1175600588743257 -0.11144368599109587
leaf_weight=17.32804407179356 3.1859377846121815 5.2778766527771994 3.378682740032672 38.86826004460454 51.221680123358965 3.8632548525929447 2.8009737133979788 7.4536649398505679 4.6883699223399198 6.5380894914269412 2.0680301301181316 1.7530888691544539 1.655287850648165 2.5622162371873856 2.8745434768497944 3.1199403852224314
leaf_count=121 16 35 20 221 319 48 19 45 33 49 36 16 16 22 27 37
internal_value=-0.000171078 0.00740702 -0.000893353 0.00286421 0.0145691 -0.0575049 0.0522919 -0.0396872 0.0678091 0.0363262 -0.077578 -0.0388383 -0.0806718 0.11289 -0.112517 -0.109723
internal_weight=158.638 140.118 118.25 114.872 90.0899 18.5201 21.8675 24.7817 19.0666 11.2265 15.3341 7.27163 5.51854 7.84009 8.06251 5.18797
internal_count=1080 884 726 706 540 196 158 166 139 82 180 80 64 57 100 73
is_linear=0
shrinkage=0.1


Tree=25
num_leaves=21
num_cat=0
split_feature=13 5 7 6 8 10 8 2 1 15 17 3 6 16 18 2 3 0 11 13
split_gain=6.3803 5.56162 7.91646 7.72318 4.95996 7.2239 4.89278 4.78835 4.78201 5.03766 4.75462 3.70771 3.45975 3.0934 5.40234 3.94359 2.27764 2.0724 2.52314 0.598875
threshold=-0.54895330345316473 -0.520400662748155 -1.7483891903613504 -0.40830199256454003 -0.2759159894790762 -0.1913892129980661 -0.3439006964830007 0.73279042944981942 -0.20609646445916197 -0.55962554398598441 -0.030440734170804687 -0.69805792009961454 1.7594413031851348 -0.1597123749157949 -0.36007673604441798 0.19705959288474703 1.5050027467202092 0.49933971424345319 -0.50636670814024776 -0.00986028087444288
decision_type=2 2 2 2 2 2 2 2 2 2 2 2 2 2 2 2 2 2 2 2
left_child=7 2 -2 17 6 -6 -5 8 9 -1 -9 -11 16 15 -15 -4 -10 19 -19 -3
right_child=1 3 13 4 5 -7 -8 10 12 11 -12 -13 -14 14 -16 -17 -18 18 -20 -21
leaf_value=-0.09433118402300239 -0.10206443132339876 -0.17309277768881226 -0.047386943359487239 -0.033778379326444417 -0.028351018263921571 -0.20707693152082018 0.032185453148283472 -0.12785660356204162 0.098754476781039602 0.082115104857523907 0.019958580276428314 -0.012512849568862542 -0.028038568318304164 -0.017111201199966699 0.10439600507625571 0.089526199185368749 -0.00021930707722593574 0.039474227060836642 -0.10330228271163998 -0.11315919202304091
leaf_weight=4.0285366848111179 4.5218063741922405 2.3534256890416136 6.6456986330449634 21.230445470660921 9.8444421216845495 2.9359603822231284 23.906565997749571 3.5937817394733429 18.239646468311555 7.5533202514052435 5.5163193345069867 9.1645143702626193 3.0398836582899085 5.3104244172573152 11.7674496769905 3.0782486274838448 2.6648232638835898 1.9722177572548387 3.3235402777791014 5.7180709317326537
leaf_count=22 27 14 42 154 64 17 145 22 136 49 33 52 17 33 100 19 13 12 36 73
internal_value=-0.000168165 -0.0147931 0.0203283 -0.0302259 -0.0144129 -0.0694086 0.001159 0.0277243 0.0411938 0.0060517 -0.038352 0.0302412 0.0716423 0.0409775 0.0666129 -0.00404521 0.0861377 -0.0987406 -0.0501302 -0.130634
internal_weight=156.409 102.608 31.3236 71.2847 57.9174 12.7804 45.137 53.8008 44.6907 20.7464 9.1101 16.7178 23.9444 26.8018 17.0779 9.72395 20.9045 13.3673 5.29576 8.0715
internal_count=1080 736 221 515 380 81 299 344 289 123 55 101 166 194 133 61 149 135 48 87
is_linear=0
shrinkage=0.1


Tree=26
num_leaves=17
num_cat=0
split_feature=13 16 8 3 1 12 4 5 10 10 4 14 1 14 12 3
split_gain=5.60788 5.15784 4.91237 4.73706 5.31374 4.48969 4.32106 3.81733 4.09631 3.72258 3.22438 2.88376 1.55076 1.1494 0.166667 0.019284
threshold=-0.1585488126122501 1.6433003560769104 0.13091043815505946 0.95423758001525305 -0.70731255973554397 -0.84557617814214414 -0.68609313994491516 0.90171915415539383 -0.28331501178793617 -0.011601919021374944 -2.4453880002818411 0.57543139457396231 -0.62916355048214068 -0.71879592723187313 0.11635141706481182 -0.16628465569482964
decision_type=2 2 2 2 2 2 2 2 2 2 2 2 2 2 2 2
left_child=1 2 7 4 9 -6 -7 8 -1 10 -2 13 -4 -5 -15 -14
right_child=3 -3 12 11 5 6 -8 -9 -10 -11 -12 -13 15 14 -16 -17
leaf_value=0.054787422834446875 0.012497453731006162 -0.1110696904087059 0.037989263401573492 -0.043226301875512192 0.09851581932553452 0.054373103588662444 -0.022379235239461504 -0.061023173342202724 0.0015840677655636272 0.03692381567271729 -0.12141190299110959 0.019174981171230798 0.11362410665941819 -0.14826590866348036 -0.11517936378041203 0.12526912208114435
leaf_weight=22.19146379083395 2.2988179810345164 3.0138944163918486 3.9966001063585281 2.1957665756344786 4.7733580358326426 9.6373065933585114 30.705961126834158 6.3821001648902884 41.599528610706329 2.8290924355387679 8.2560973055660707 2.3118737749755374 4.1216194033622742 2.313670113682746 4.4519960097968578 2.1711587235331518
leaf_count=133 25 18 26 18 29 57 222 32 260 24 93 18 42 13 55 15
internal_value=-0.000123264 0.0173657 0.0221765 -0.0210467 -0.00960866 0.00680648 -0.00404443 0.012715 0.0200923 -0.064943 -0.092247 -0.0804024 0.0867032 -0.106091 -0.126494 0.117642
internal_weight=153.25 83.4764 80.4625 69.7739 58.5006 45.1166 40.3433 70.1731 63.791 13.384 10.5549 11.2733 10.2894 8.96143 6.76567 6.29278
internal_count=1080 526 508 554 450 308 279 425 393 142 118 104 83 86 68 57
is_linear=0
shrinkage=0.1


Tree=27
num_leaves=12
num_cat=0
split_feature=9 13 14 13 2 3 17 14 14 12 1
split_gain=5.25441 5.05244 5.06132 3.70539 5.06962 4.72333 3.53129 1.91849 0.411325 0.0454556 0.0106974
threshold=-0.86923902031996625 -1.6759755581310596 -1.0690880777787497 -0.26709802754859852 -1.3071875609779087 -0.71704982239978554 0.53194496046988848 -0.60053459062890757 0.54338040561760581 -0.090785849334705945 -0.78892389397830998
decision_type=2 2 2 2 2 2 2 2 2 2 2
left_child=7 -2 6 5 -5 -4 -3 -1 9 -9 -11
right_child=1 2 3 4 -6 -7 -8 8 -10 10 -12
leaf_value=0.014775539761798118 0.11278247154948147 -0.11457161883763363 0.066732648780519835 0.078977544658819787 -0.020006904260906011 0.0065641243758536721 0.0080955911356508144 -0.13243889171379469 -0.059271049427044767 -0.10711916077280384 -0.11909434926432237
leaf_weight=1.7124736867845056 4.1666972637176505 6.1449146345257741 17.896600887179375 5.6889816410839549 57.178341962397099 48.147211804986 3.7968638278543949 1.6590952053666108 1.516088370233774 1.8554748278111213 1.2474761903285982
leaf_count=18 27 39 144 39 427 282 22 12 21 35 14
internal_value=-0.000127825 0.00428128 0.00102538 0.0063274 -0.0110496 0.0228686 -0.0677238 -0.0790441 -0.104635 -0.119078 -0.111934
internal_weight=151.01 143.02 138.853 128.911 62.8673 66.0438 9.94178 7.99061 6.27813 4.76205 3.10295
internal_count=1080 980 953 892 466 426 61 100 82 61 49
is_linear=0
shrinkage=0.1


Tree=28
num_leaves=17
num_cat=0
split_feature=13 1 12 2 14 3 17 1 0 10 3 10 9 15 1 0
split_gain=4.91332 4.12541 4.41852 3.77113 3.76083 5.58856 4.29282 4.26909 4.22872 5.14082 3.56688 3.03127 2.03222 0.46641 0.0144055 0.0014986
threshold=1.2632350395184568 -0.69183454806881273 -1.4365561068821979 -0.78140121252026262 -0.83421139154079726 -0.10930894879431699 1.3713876303646149 1.4807154531524023 -0.21649904588834618 -0.56323123446521384 -0.10930894879431699 0.10085371552982987 -0.95996255183073964 -0.31916146539696166 0.44368867148139485 1.0000000180025095e-35
decision_type=2 2 2 2 2 2 2 2 2 2 2 2 2 2 2 2
left_child=1 2 -1 -2 8 6 -6 -7 9 -3 11 -4 -12 -5 15 -15
right_child=3 4 10 13 5 7 -8 -9 -10 -11 12 -13 -14 14 -16 -17
leaf_value=0.084774607745845623 0.057342811173698993 -0.10724761105523428 -0.03869473098286931 -0.050341355851517923 0.060034423065234592 0.011963603528215901 -0.068389677068981858 -0.070616007919451843 -0.099716132079199798 0.042487904988883843 0.0018992740839492636 0.058347939092606563 -0.1161612257505041 -0.10657339113559637 -0.11857618421438872 -0.11057444179750141
leaf_weight=3.09031614661217 1.8849788531661031 3.0641119778156289 13.313033903017649 1.4943134449422357 35.815784059464931 46.212353020906448 2.806832253932952 7.2411522530019274 5.6761073619127265 9.1097609288990498 1.8247555643320081 4.24525412172079 7.2544497642666048 1.7585268355905994 2.4348388090729713 2.0017326027154922
leaf_count=17 16 19 93 24 288 281 18 42 31 51 20 29 66 34 24 27
internal_value=-0.000114599 0.00463647 -0.0284139 -0.0694146 0.0135744 0.0217184 0.0507014 0.000776843 -0.028435 0.00480011 -0.0415453 -0.0152317 -0.0924332 -0.100488 -0.112584 -0.108703
internal_weight=149.228 139.654 29.7278 9.57439 109.926 92.0761 38.6226 53.4535 17.85 12.1739 26.6375 17.5583 9.07921 7.68941 6.1951 3.76026
internal_count=1080 955 225 125 730 629 306 323 101 70 208 122 86 109 85 61
is_linear=0
shrinkage=0.1


Tree=29
num_leaves=18
num_cat=0
split_feature=8 12 13 10 15 19 17 15 17 14 3 17 7 6 15 13 8
split_gain=4.30591 4.64984 3.97954 3.80325 3.75509 3.73373 4.2882 6.16225 5.28006 3.26009 3.41579 3.27622 3.1486 2.24252 1.78866 2.90211 0.218206
threshold=-0.34458517532216043 -0.87293987708806908 -0.95616317635660686 0.16031055357298082 -0.19636887683745805 -0.58402730807320957 1.1093852637410329 0.06660065627954502 -0.28596000045552189 1.1019543626801196 -0.43217128789722214 1.9454890120064146 0.17158634389951502 -0.23505938878342805 -0.29238756486960504 -0.10920291421533083 -0.23726469260996119
decision_type=2 2 2 2 2 2 2 2 2 2 2 2 2 2 2 2 2
left_child=9 2 16 4 -4 12 8 -8 -7 10 14 13 -3 -12 -1 -16 -2
right_child=1 5 3 -5 -6 6 7 -9 -10 -11 11 -13 -14 -15 15 -17 -18
leaf_value=-0.050480511995245107 0.12982870562209095 -0.0095350918650766395 -0.10208409562213382 0.1022953191035845 0.034416371438616693 -0.012045901622494241 0.028666052814032818 -0.12216013145907974 0.043036982029108765 0.066884209384258861 -0.11131852850707616 0.052532709204752316 -0.14176355732861037 -0.045905287904259726 0.096727200124691062 -0.037919471105201275 0.092454348655722537
leaf_weight=2.9731102026998997 4.3372753709554672 4.0733086578547946 3.1861278489232063 3.9839357286691657 5.4845839217305166 34.40448203869164 5.0846762806177122 5.7974333539605141 35.214004002511501 3.2966609224677077 7.7094710934907225 2.5413469746708861 3.2278369944542646 16.367503153160218 3.9959477931261063 2.6705436836928111 2.4414684735238579
leaf_count=22 34 32 17 32 36 236 37 37 252 20 85 15 30 125 27 22 21
internal_value=-0.00012494 0.010277 0.0545387 0.0214186 -0.0157419 0.000480455 0.00669081 -0.0516865 0.0158158 -0.0283253 -0.036982 -0.0554527 -0.0679933 -0.0668507 0.0140221 0.0427888 0.116368
internal_weight=146.79 107.235 19.4334 12.6546 8.67071 87.8017 80.5006 10.8821 69.6185 39.5546 36.2579 26.6183 7.30115 24.077 9.6396 6.66649 6.77874
internal_count=1080 764 140 85 53 624 562 74 488 316 296 225 62 210 71 49 55
is_linear=0
shrinkage=0.1


Tree=30
num_leaves=13
num_cat=0
split_feature=13 2 13 1 14 18 17 12 3 15 1 0
split_gain=4.03508 3.93301 3.61488 4.27106 3.21611 6.63041 5.01457 3.04613 2.71655 0.513205 0.0105287 0.00116777
threshold=1.2632350395184568 -0.93810983650305102 -1.6759755581310596 -0.69183454806881273 -0.38203054913219248 -0.46017037865140997 1.1093852637410329 -1.4365561068821979 -0.35620367869653857 -0.37667369942951895 0.44368867148139485 -1.0000000180025095e-35
decision_type=2 2 2 2 2 2 2 2 2 2 2 2
left_child=2 -2 -1 7 5 -5 -6 -4 -9 -3 11 -11
right_child=1 9 3 4 6 -7 -8 8 -10 10 -12 -13
leaf_value=0.10068838632453443 0.071118290050258867 -0.041486640215790738 0.069093079791104059 0.038227028986380689 0.037260410253630319 -0.042058347241773208 -0.042595516442140761 -0.017555725631129018 -0.085230601200173867 -0.10556521361268034 -0.11634768740031894 -0.10917868686065804
leaf_weight=3.7708798795938483 1.6987423934042452 1.3038093671202657 2.6014077514410046 16.990460909903049 52.283779732882977 26.070000093430281 9.2556175999343377 14.802651226520542 9.8974264468997681 1.6044213809072969 2.2008717209100723 2.0208075921982513
leaf_count=28 12 22 15 98 385 168 58 102 101 36 24 31
internal_value=-0.000113884 -0.0656211 0.00414889 0.00138896 0.0105822 -0.01038 0.02525 -0.0338332 -0.0446733 -0.0982 -0.110892 -0.107579
internal_weight=144.501 8.82865 135.672 131.901 104.6 43.0605 61.5394 27.3015 24.7001 7.12991 5.8261 3.62523
internal_count=1080 125 955 927 709 266 443 218 203 113 91 67
is_linear=0
shrinkage=0.1


Tree=31
num_leaves=14
num_cat=0
split_feature=18 13 12 14 16 4 0 10 9 10 15 1 1
split_gain=3.93088 3.36261 2.95803 2.93992 2.92517 3.43503 5.20466 4.0513 2.79968 5.43879 1.70718 0.0122433 0.00124431
threshold=-1.364648890623591 0.94496120942023187 -0.18120339207819725 0.083728235437751528 -1.1717014556733008 0.77501310859085093 -1.1926428097044359 2.0964057211640088 -0.79292168323695378 -0.73074828611471765 -0.4718913067067938 0.44368867148139485 -0.63695796125040116
decision_type=2 2 2 2 2 2 2 2 2 2 2 2 2
left_child=2 4 -1 8 10 6 -6 -7 -3 -10 -2 12 -5
right_child=1 3 -4 11 5 7 -8 -9 9 -11 -12 -13 -14
leaf_value=0.0083300816932347765 -0.11293818816109774 -0.11750349348902606 -0.13424798001264915 -0.10520284182105527 -0.081476720249140142 0.055795701078790096 0.0095265925435454642 -0.064944514759414845 0.13881245274052487 -0.044402402312976479 -0.0094957601588284354 -0.11800287631237932 -0.10964834210997054
leaf_weight=2.3874704167246819 2.9548826292157173 1.9774958174675692 3.72610686905682 1.3855727761983869 6.8108193147927514 25.243217922747139 81.341885475441813 3.1227969080209723 2.4299689754843703 4.8623324856162071 3.4678813964128485 1.8005418889224527 1.1540600359439843
leaf_count=13 20 33 37 35 51 214 525 22 14 59 22 18 17
internal_value=-0.000119647 0.0033926 -0.0785685 -0.0437714 0.0086138 0.0122353 0.00249553 0.0425035 -0.0119692 0.0166492 -0.0570859 -0.111695 -0.107223
internal_weight=142.665 136.551 6.11358 13.61 122.941 116.519 88.1527 28.366 9.2698 7.2923 6.42276 4.34017 2.53963
internal_count=1080 1030 50 176 854 812 576 236 106 73 42 70 52
is_linear=0
shrinkage=0.1


Tree=32
num_leaves=15
num_cat=0
split_feature=12 3 10 17 1 14 11 0 1 18 18 13 13 13
split_gain=3.4214 4.14785 5.1315 7.80569 3.23769 5.468 3.96475 3.79749 3.65629 3.4478 4.30569 0.94779 0.150349 0.00293919
threshold=0.83876680278572635 0.49843192481115162 -0.62948504861210519 0.25205070705660509 -0.25733298427283247 -1.1350238699948239 1.1356603209287075 1.735788481743834 1.9155068717905859 -1.2576375292951847 -0.82138694189707762 1.2415345511026687 0.23447114425146703 0.74257590530744733
decision_type=2 2 2 2 2 2 2 2 2 2 2 2 2 2
left_child=4 2 11 -4 7 -6 8 9 -7 -1 -11 -2 -3 -14
right_child=1 12 3 -5 5 6 -8 -9 -10 10 -12 -13 13 -15
leaf_value=-0.10989015585461891 -0.1532851606238656 -0.14660186944362305 0.11932824261952445 -0.10794138395377693 -0.1163741260371501 0.036635557214462676 -0.060984590465995706 -0.12654325071266079 -0.060149194113360893 0.075745005902790763 -0.012961533225158077 -0.049960364733636256 -0.11321243198696235 -0.10688982413412565
leaf_weight=3.0787656940519801 1.9492380246520036 1.6582786440849293 4.4393774829804888 2.2911652345210314 2.8852369002997866 62.227014485746622 5.093401137739419 2.8353073000907889 4.1644785702228537 6.3627806063741437 39.07667027041316 1.6302840728312729 1.1930728144943716 1.9160373471677301
leaf_count=24 19 10 34 26 15 437 36 20 33 49 296 28 14 39
internal_value=-0.000139231 -0.0451528 -0.00948658 0.0419627 0.00525904 0.0185941 0.0240416 -0.0140528 0.0305646 -0.00747906 -0.000540163 -0.106226 -0.122285 -0.109316
internal_weight=140.801 15.0775 10.3101 6.73054 125.724 74.3701 71.4849 51.3535 66.3915 48.5182 45.4395 3.57952 4.76739 3.10911
internal_count=1080 170 107 60 910 521 506 389 470 369 345 47 63 53
is_linear=0
shrinkage=0.1


Tree=33
num_leaves=11
num_cat=0
split_feature=12 16 8 3 1 9 17 15 17 10
split_gain=3.18885 3.69746 3.66191 3.7836 3.28377 3.27523 3.03332 7.37524 5.63132 2.21795
threshold=-1.5614213885103154 1.9781429808902156 -0.34328314551796418 -0.71704982239978554 -0.6778795198122779 -0.23927085092132425 1.1093852637410329 0.06660065627954502 -0.31285911751797052 -0.1444013350510911
decision_type=2 2 2 2 2 2 2 2 2 2
left_child=9 2 3 5 -5 -2 8 -8 -4 -1
right_child=1 -3 6 4 -6 -7 7 -9 -10 -11
leaf_value=0.13066558644994719 -0.02140310778879375 -0.12081691388582237 -0.0082356322681870018 -0.10036134367666312 -0.023742893881658338 0.11158632270754112 0.045170998736922041 -0.11256103109701017 0.045815464631158202 0.0073683131398028807
leaf_weight=3.0716903135180473 4.0763515755534172 2.6258215196430674 40.159081133082509 7.048461763188242 27.103886453434825 3.3934926316142073 5.7193331718444806 6.1541751623153687 37.065971942618489 2.7788186743855467
leaf_count=23 29 16 286 102 192 30 47 43 289 23
internal_value=-0.000156715 -0.00332707 -0.000967023 -0.0254551 -0.0395556 0.039013 0.0104725 -0.0365833 0.0177075 0.072103
internal_weight=139.197 133.347 130.721 41.6222 34.1523 7.46984 89.0986 11.8735 77.2251 5.85051
internal_count=1080 1034 1018 353 294 59 665 90 575 46
is_linear=0
shrinkage=0.1


Tree=34
num_leaves=16
num_cat=0
split_feature=13 8 6 5 13 19 0 2 15 4 8 8 1 7 12
split_gain=3.00267 3.01831 4.54201 5.22669 4.03427 3.67032 3.30489 3.17264 3.66609 3.01298 1.76767 0.594411 0.401282 0.324179 0.00349557
threshold=1.6876001463160903 0.18644172236839007 -0.84402204658209634 -1.0538267148133202 -0.47508964244518831 1.3399714388193846 0.95487347069096196 -0.48075934556432315 -0.0067131857524887302 0.90405119019772673 1.6029951224587784 -0.27181909746562954 0.20631867176584415 0.7085650163795213 0.93588424405204063
decision_type=2 2 2 2 2 2 2 2 2 2 2 2 2 2 2
left_child=1 2 4 11 9 -5 -6 8 -3 -1 12 -4 -9 14 -2
right_child=13 7 3 5 6 -7 -8 10 -10 -11 -12 -13 -14 -15 -16
leaf_value=-0.059409932704109804 -0.11452399697737448 0.047558563238556402 0.1288609618071179 0.0030602630063115924 -0.13381405160760226 -0.11003798655421522 -8.7765526519954166e-05 0.090295502648029199 -0.11473187975006578 0.063386212392377336 0.030536890737365346 0.059770217004664533 0.14488503688077861 -0.043791884923065086 -0.10703898249319513
leaf_weight=4.0553185790777233 1.1731940563768146 3.6868830919265747 3.2126310989260674 93.253793489187956 6.5659666107967478 2.9604995138943186 2.5720329750329256 2.7250578328967077 2.2361607998609534 3.9389561451971531 4.1676704473793507 2.0333558730781069 2.6619788706302643 1.0252124350517986 1.3326539956033228
leaf_count=24 16 32 32 665 64 22 24 28 18 29 35 21 21 21 28
internal_value=-0.000138605 0.00225873 -0.00316179 0.00488004 -0.0507869 -0.000419753 -0.0961747 0.0437914 -0.0137119 0.00109445 0.0794382 0.102081 0.117271 -0.0911626 -0.110543
internal_weight=137.601 134.07 118.593 101.46 17.1323 96.2143 9.138 15.4778 5.92304 7.99427 9.55471 5.24599 5.38704 3.53106 2.50585
internal_count=1080 1015 881 740 141 687 88 134 50 53 84 53 49 65 44
is_linear=0
shrinkage=0.1


Tree=35
num_leaves=9
num_cat=0
split_feature=18 12 13 13 15 19 17 7
split_gain=2.88732 2.95921 2.52609 2.78776 2.83637 4.749 4.59369 0.318963
threshold=-1.364648890623591 -0.2400110422290819 1.6876001463160903 -1.6759755581310596 -0.1889074853619028 -0.4649406669343622 1.021945509748287 0.65713347646001241
decision_type=2 2 2 2 2 2 2 2
left_child=1 -1 3 -2 5 -5 -6 -4
right_child=2 -3 7 4 6 -7 -8 -9
leaf_value=0.020064847359246525 0.094060238189552822 -0.13020428081167312 -0.11007300928842943 -0.051745901026811203 0.026903667080225104 0.0088362293414020274 -0.044389274204130601 -0.041195543687528501
leaf_weight=2.1591398008167744 3.4212852567434302 3.3342012614011756 2.0315281078219409 21.041133550927043 58.854117372073233 33.604896763339639 10.677623733878134 1.0049095228314397
leaf_count=12 28 38 38 159 450 255 79 21
internal_value=-0.000120797 -0.0711415 0.00286569 0.00501081 0.00255736 -0.0144906 0.0159556 -0.087278
internal_weight=136.129 5.49334 130.635 127.599 124.178 54.646 69.5317 3.03644
internal_count=1080 50 1030 971 943 414 529 59
is_linear=0
shrinkage=0.1


Tree=36
num_leaves=11
num_cat=0
split_feature=9 13 14 2 16 6 4 6 13 19
split_gain=2.60631 2.70169 3.01734 3.17678 2.87919 2.87443 2.17559 0.0231748 0.00239823 0.000296455
threshold=-0.86923902031996625 -1.6759755581310596 -1.1350238699948239 -0.60712714961405811 1.9781429808902156 0.31741452605907905 -2.4453880002818411 0.35752799070175589 0.56158591407464287 -0.56394076925469949
decision_type=2 2 2 2 2 2 2 2 2 2
left_child=6 -2 3 -3 5 -4 -1 8 -8 -10
right_child=1 2 4 -5 -6 -7 7 -9 9 -11
leaf_value=0.010499496603180289 0.094049787655982195 -0.14845071974315541 -0.0052631946439254248 -0.0063019530171573414 -0.097828789445582584 0.02742470031170452 -0.11139378201924513 -0.12464124659238825 -0.10353663283467873 -0.10643538254107095
leaf_weight=2.3337122686207294 3.169369261711835 2.711726576089859 74.545331671833992 3.7412167619913808 2.7048476971685878 42.091280495747924 1.0061924010515211 1.2045951839536426 0.69683317095041297 0.71461794711649373
leaf_count=35 27 17 606 23 18 289 12 12 24 17
internal_value=-0.000123077 0.0028638 0.00056638 -0.0660373 0.00416772 0.00653306 -0.0647976 -0.11331 -0.107664 -0.105004
internal_weight=134.92 128.964 125.794 6.45294 119.341 116.637 5.95595 3.62224 2.41764 1.41145
internal_count=1080 980 953 40 913 895 100 65 53 41
is_linear=0
shrinkage=0.1


Tree=37
num_leaves=14
num_cat=0
split_feature=2 3 1 1 16 15 10 13 0 13 5 7 12
split_gain=2.69084 6.92693 5.15057 5.72159 3.74155 3.27015 3.3136 3.44442 4.1341 3.2075 4.20496 3.87117 2.54557
threshold=0.42585969121263983 0.95423758001525305 0.92772830905917847 -0.24898769190990919 -1.2497399223100467 -0.57810427793525521 -0.98223285079512235 0.88346340877909724 -1.0624903078622907 -0.81844941788200798 1.2771237489760747 -0.3945583718563162 -0.53663434473880056
decision_type=2 2 2 2 2 2 2 2 2 2 2 2 2
left_child=1 4 3 -3 -1 -2 -7 8 -8 11 -11 -6 -9
right_child=5 2 -4 -5 9 6 7 12 -10 10 -12 -13 -14
leaf_value=-0.061843316208218903 -0.14145065133211124 -0.134441458731618 -0.17801579150307784 0.033866938520430136 0.11468372110641051 -0.12260515022702628 -0.089197078075121505 0.063497575326530692 0.019411621451309199 0.0033373782904654401 0.083445367327861425 0.021640259659061717 -0.11139229132605784
leaf_weight=5.2211177218705407 2.1403138395398846 3.0900625754147759 2.8910011649131766 5.8314577788114539 7.9375526160001781 2.6520854327827683 4.00902335345745 1.0182182341814039 27.860243510454897 49.214607207104564 7.5589595567435017 10.241043962538241 4.5568694900721303
leaf_count=39 15 31 18 39 78 23 30 6 193 402 51 74 81
internal_value=-0.000120499 0.00947386 -0.0620175 -0.0244284 0.0200072 -0.0210157 -0.014587 -0.00693633 0.00574909 0.0257089 0.0140031 0.062267 -0.0794509
internal_weight=134.223 91.9858 11.8125 8.92152 80.1733 42.2368 40.0964 37.4444 31.8693 74.9522 56.7736 18.1786 5.57509
internal_count=1080 732 88 70 644 348 333 310 223 605 453 152 87
is_linear=0
shrinkage=0.1


Tree=38
num_leaves=16
num_cat=0
split_feature=12 2 3 13 6 5 3 14 0 13 13 6 7 12 11
split_gain=2.52604 2.92127 4.85162 5.1632 3.48984 7.1621 3.22083 5.16069 4.33941 4.86237 4.30245 3.73882 2.68506 2.00838 0.853418
threshold=-1.5614213885103154 0.42585969121263983 0.95423758001525305 -0.54413014033940288 1.0000000180025095e-35 -0.17583820291693553 0.5364157294114934 0.028184271159387729 -1.3878715624676541 -0.1585488126122501 -0.49458898382676458 0.37337447213333391 0.91408103709204003 -2.3459094137554932 -0.23530040430678303
decision_type=2 2 2 2 2 2 2 2 2 2 2 2 2 2 2
left_child=13 2 4 -4 5 -2 7 11 -8 -10 -9 -3 -6 -1 -5
right_child=1 6 3 14 12 -7 8 10 9 -11 -12 -13 -14 -15 -16
leaf_value=0.0052584757757452262 0.021278403406906177 -0.053346201329825739 0.02024420185378787 -0.16379487033037521 0.060282726076996175 -0.071895330980495914 -0.14810946224281227 -0.20307735380291536 0.096695358375035401 -0.030325122070945662 -0.059393968503106367 0.043442152917296778 -0.0026782154858043263 0.12716410346350365 -0.086826897325529548
leaf_weight=2.6764892786741257 32.947116699069738 9.221590789034968 5.0621471963822842 2.3418010510504246 22.462029438465834 11.005877778865395 1.470089703798293 2.9994657672941685 6.0933178886771193 5.9629098596051326 6.8283624909818155 7.0363726988434783 9.6979043055325729 2.7298116646707049 3.7434116033837181
leaf_count=22 268 78 30 15 162 124 16 19 38 70 63 49 61 24 41
internal_value=-0.000131084 -0.00298369 0.00724001 -0.0543738 0.0162639 -0.0020524 -0.0255052 -0.0460384 0.0140937 0.0338721 -0.103246 -0.0114566 0.0412967 0.0668125 -0.116447
internal_weight=132.279 126.872 87.2603 11.1474 76.1129 43.953 39.6121 26.0858 13.5263 12.0562 9.82783 16.258 32.1599 5.4063 6.08521
internal_count=1080 1034 701 86 615 392 333 209 124 108 82 127 223 46 56
is_linear=0
shrinkage=0.1


Tree=39
num_leaves=12
num_cat=0
split_feature=18 16 5 7 15 18 18 14 12 11 0
split_gain=2.45622 2.65581 2.13377 4.56104 2.48524 3.27476 4.74025 3.36444 2.09468 2.14485 0.149808
threshold=-1.364648890623591 -0.83568479806675589 -1.0538267148133202 -1.7839250834457014 1.1411031976170454 -0.031666320981183743 0.062331980595509241 0.19305147793947877 -0.5442489483111278 -0.59363742102689709 1.15010222345418
decision_type=2 2 2 2 2 2 2 2 2 2 2
left_child=1 -1 3 -2 5 7 -7 -4 9 -5 -10
right_child=2 -3 4 8 -6 6 -8 -9 10 -11 -12
leaf_value=0.034117977302059871 -0.081342467141735819 -0.11942466469413027 0.024339528654161374 -0.051042971876475135 0.086820548243660645 -0.095129132980338676 -0.0098535016383181628 -0.031294693866441251 0.10466485266700337 0.087962075292535996 0.14051689986913812
leaf_weight=1.6885099261999128 2.3708096854388705 3.3846431458368889 46.826150339096785 2.0696744062006474 3.0932224765419951 7.7330244770273557 41.506235223263502 14.156107277609406 3.3215274959802619 2.3940293975174418 1.795513119548559
leaf_count=13 17 37 361 24 21 69 336 126 42 18 16
internal_value=-0.0001067 -0.0683207 0.00265589 0.0428431 -0.00158273 -0.00406366 -0.023246 0.0114249 0.0735735 0.02351 0.117245
internal_weight=130.339 5.07315 125.266 11.9516 113.315 110.222 49.2393 60.9823 9.58074 4.4637 5.11704
internal_count=1080 50 1030 117 913 892 405 487 100 42 58
is_linear=0
shrinkage=0.1


Tree=40
num_leaves=16
num_cat=0
split_feature=12 1 6 7 9 14 18 2 5 3 9 15 0 10 4
split_gain=2.16703 2.4815 3.33533 4.48495 4.74642 2.28718 4.62367 5.3352 4.12769 3.14594 3.65337 3.12296 2.26569 1.96129 0.368488
threshold=-1.5614213885103154 -0.70731255973554397 -0.20602173813392341 -0.9722138103059762 -0.49094252887557949 -0.75353305132187842 -0.29060865706124656 -0.48542285236399396 0.29906753707964001 -0.10930894879431699 -0.79292168323695378 0.26343839398280888 0.043805957795944477 -0.1444013350510911 -0.36241371164303116
decision_type=2 2 2 2 2 2 2 2 2 2 2 2 2 2 2
left_child=13 2 3 -2 -5 6 8 -8 -3 11 -11 -7 14 -1 -4
right_child=1 5 12 4 -6 9 7 -9 -10 10 -12 -13 -14 -15 -16
leaf_value=0.12498680102783238 -0.16078708334002781 -0.046080572168610473 -0.11380308445081891 -0.045280489422555754 0.062740745516225244 0.056546358839932226 -0.1518050125471069 -0.0076857838949463859 0.080374962127719982 -0.11846434784144416 0.0023917340780998473 -0.011894926511660419 -0.022482450080079319 0.0018054532778062915 -0.17668498308395533
leaf_weight=2.5830126255750656 1.7641969565302194 4.8006216473877448 1.970690665766597 8.3934092475101405 7.8927404433488801 22.474016709253196 4.6657401137053967 5.7149459756910783 5.5834246929734945 2.6506206057965747 44.384783381596208 9.4789603538811189 2.6362349353730679 2.5872411392629138 1.7679336294531811
leaf_count=23 14 29 30 122 61 215 31 42 31 24 317 85 23 23 10
internal_value=-8.77035e-05 -0.0027288 -0.0312967 -0.00933618 0.00706973 0.00426624 -0.0252666 -0.0724621 0.0219136 0.0120299 -0.00441896 0.036243 -0.0934777 0.0633458 -0.143539
internal_weight=129.349 124.178 24.4252 18.0503 16.2861 99.7531 20.7647 10.3807 10.384 78.9884 47.0354 31.953 6.37486 5.17025 3.73862
internal_count=1080 1034 260 197 183 774 133 73 60 641 341 300 63 46 40
is_linear=0
shrinkage=0.1


Tree=41
num_leaves=7
num_cat=0
split_feature=18 12 13 2 0 16
split_gain=2.03921 2.4765 2.04429 2.07734 2.10285 2.43325
threshold=-1.364648890623591 -0.2400110422290819 -1.6759755581310596 -2.1523585099796612 1.9310172345070522 1.6433003560769104
decision_type=2 2 2 2 2 2
left_child=1 -1 -2 -4 5 -5
right_child=2 -3 3 4 -6 -7
leaf_value=0.018864034096271121 0.085060204764272618 -0.1257508918217369 -0.10576160730793344 0.0074114693437859177 -0.065458891775718273 -0.073682751714141986
leaf_weight=2.0720211043953896 2.9222651571035376 2.7635292550548902 1.8150383234024037 109.78763876482844 4.4418665189295998 3.8290850929915896
leaf_count=12 28 38 10 931 34 27
internal_value=-8.6436e-05 -0.0637838 0.00242189 0.000407339 0.00203959 0.00467845
internal_weight=127.631 4.83555 122.796 119.874 118.059 113.617
internal_count=1080 50 1030 1002 992 958
is_linear=0
shrinkage=0.1


Tree=42
num_leaves=14
num_cat=0
split_feature=12 3 10 17 19 7 1 4 13 12 13 11 13
split_gain=1.96281 3.66788 3.85625 4.97301 2.32616 2.62833 2.70642 3.25144 0.886305 0.429609 0.121106 0.00156992 0.000449424
threshold=0.83876680278572635 0.49843192481115162 -0.62948504861210519 0.073332007875804642 1.6279085035528598 -2.0030033938180765 1.9155068717905859 0.77501310859085093 1.1788442512348369 -0.73320074205197516 0.10072128240136864 0.76535336499175977 0.80350617382102074
decision_type=2 2 2 2 2 2 2 2 2 2 2 2 2
left_child=4 2 8 -4 5 -1 7 -7 -2 -6 -3 -12 -13
right_child=1 10 3 -5 9 6 -8 -9 -10 -11 11 12 -14
leaf_value=-0.088363086260285453 -0.14811698761121236 -0.14516006881535493 0.108768981587637 -0.080713333895165718 0.11913195072079735 -0.00098936491861716059 -0.0795025115474772 0.045240032285979379 -0.037911882191366625 0.047467990808264832 -0.11050758482960399 -0.10713792793932508 -0.10373597518615392
leaf_weight=3.1558916252106419 1.5688182339072221 1.2741850838065141 3.9713152535259715 2.1269221305847168 1.8085361495614054 85.718889093026519 3.7276680059730998 18.496785450726748 1.3644568240270016 1.5564023926854123 0.93506359122693572 0.72893772460520245 0.83106286823749542
leaf_count=22 18 7 32 28 21 639 31 178 29 19 13 14 29
internal_value=-8.10504e-05 -0.0372176 -0.00263664 0.042682 0.004072 0.00159105 0.004221 0.00721569 -0.0968534 0.0859848 -0.120077 -0.107268 -0.105326
internal_weight=127.265 12.8008 9.03151 6.09824 114.464 111.099 107.943 104.216 2.93328 3.36494 3.76925 2.49506 1.56
internal_count=1080 170 107 60 910 870 848 817 47 40 63 56 43
is_linear=0
shrinkage=0.1


Tree=43
num_leaves=12
num_cat=0
split_feature=13 13 15 19 13 17 0 19 5 3 7
split_gain=1.8749 1.79659 2.11996 5.27866 3.32381 3.31629 2.20203 4.56721 4.04674 0.351132 0.00143731
threshold=1.6876001463160903 -1.6759755581310596 -0.51641305473887134 -0.4649406669343622 -0.46265596457526353 -0.9912680663644694 -1.0624903078622907 -0.48772940791069203 1.2468211929461492 0.46044812021080983 0.078797198805132682
decision_type=2 2 2 2 2 2 2 2 2 2 2
left_child=1 -1 3 4 -3 -5 7 -4 -8 10 -2
right_child=9 2 6 5 -6 -7 8 -9 -10 -11 -12
leaf_value=0.081442856447840883 -0.11036590151533712 -0.17994917674915314 -0.12087207050709313 -0.079154924201369284 -0.043028473472821814 0.038572951104404923 0.003161743590422224 0.010864691170794631 0.068050485804298275 -0.028197273522209756 -0.10477487985741255
leaf_weight=2.7619720268994561 0.90030244458466702 2.9129672199487686 4.0469359010457993 3.1850658636540183 4.530270608142021 9.6183653865009511 77.857260111253709 7.5255032889544946 10.964451557956634 0.8012521844357251 0.93973319325596094
leaf_count=28 15 16 42 20 42 85 652 48 82 22 28
internal_value=-8.56308e-05 0.00169869 -0.000126988 -0.0296454 -0.0966134 0.00928619 0.00582605 -0.0352043 0.0111718 -0.0834503 -0.10751
internal_weight=126.044 123.403 120.641 20.2467 7.44324 12.8034 100.394 11.5724 88.8217 2.64129 1.84004
internal_count=1080 1015 987 163 58 105 824 90 734 65 43
is_linear=0
shrinkage=0.1


Tree=44
num_leaves=17
num_cat=0
split_feature=12 2 3 13 6 16 3 14 8 14 16 19 16 13 12 17
split_gain=1.76306 2.24324 3.53091 4.62592 3.17119 5.0967 2.92044 3.92848 3.91048 3.4199 3.02192 2.71762 2.55425 1.96072 1.82073 0.814254
threshold=-1.5614213885103154 0.42585969121263983 0.95423758001525305 -0.54413014033940288 -0.84402204658209634 -0.70008554051908434 0.5364157294114934 0.028184271159387729 -0.21218692807277603 -0.11151389542402011 0.38244974297236117 -0.49930731809666629 0.099115259245184065 -0.13794833800163001 -2.3459094137554932 0.25205070705660509
decision_type=2 2 2 2 2 2 2 2 2 2 2 2 2 2 2 2
left_child=14 2 4 -4 5 -2 7 10 -9 12 -3 -6 -8 -11 -1 -5
right_child=1 6 3 15 11 -7 9 8 -10 13 -12 -13 -14 -15 -16 -17
leaf_value=-0.00067293976974342081 -0.12121759479863554 -0.048842238270262003 0.022690850746807947 -0.14539653474004152 -0.0063987339257007602 0.014588674932041586 -0.13593618469816579 -0.12954269390050407 0.017447851312630179 0.10279151237248574 0.04050928149737066 0.038976233040012756 0.0094617702940279248 -0.00065719149591337786 0.12219888575688816 -0.068335288764643717
leaf_weight=2.4762695766985416 4.1877115592360488 8.9988211896270531 4.9554173946380615 3.0150966020300967 19.625600175000727 8.1251740017905814 1.9674597857519982 7.1989206233993173 2.417732469737528 4.3710292801260948 6.5330968089401713 40.311295311897993 3.1309381481260061 3.1543572545051557 2.3509156033396712 2.5148037523031235
leaf_count=22 31 77 30 32 162 84 26 63 19 30 50 338 31 37 24 24
internal_value=-9.18515e-05 -0.00246562 0.00675315 -0.0474751 0.0146231 -0.0316001 -0.022658 -0.0423585 -0.0925877 0.0165883 -0.0112588 0.0241188 -0.046647 0.0594297 0.0591676 -0.110352
internal_weight=125.335 120.507 82.7351 10.4853 72.2498 12.3129 37.7724 25.1486 9.61665 12.6238 15.5319 59.9369 5.0984 7.52539 4.82719 5.5299
internal_count=1080 1034 701 86 615 115 333 209 82 124 127 500 57 67 46 56
is_linear=0
shrinkage=0.1


Tree=45
num_leaves=16
num_cat=0
split_feature=9 4 8 2 16 6 19 13 5 0 4 12 6 13 19
split_gain=1.65831 2.10672 1.67848 3.87017 2.88916 2.88671 3.42777 3.2198 3.11993 2.41616 1.85067 1.06909 0.0208857 0.0015708 0.000123539
threshold=-0.86923902031996625 -2.4453880002818411 0.18644172236839007 -1.1172578986451243 0.58517075906587435 -0.84402204658209634 1.3399714388193846 -0.4904859131944897 -0.97306365397418138 0.95487347069096196 0.93032582099972705 0.043430778721285306 0.40966853528384467 0.56158591407464287 -0.56394076925469949
decision_type=2 2 2 2 2 2 2 2 2 2 2 2 2 2 2
left_child=1 -1 5 -4 11 7 8 10 -7 -9 -2 -5 13 -3 -15
right_child=2 12 3 4 -6 6 -8 9 -10 -11 -12 -13 -14 14 -16
leaf_value=0.0204626772380955 -0.044681770067381187 -0.10940681241264386 -0.087977944519900986 0.11740349724660676 -0.017732914444584941 0.076872986917943351 -0.10514155251190899 -0.12575690121315697 0.0029173037413740117 -0.0034948745214328416 0.058462303488226744 0.039671346161461889 -0.12459154065801535 -0.10256924006321669 -0.10474073345241619
leaf_weight=2.0512076625600457 3.5531005896627903 0.89917264133691732 2.1435882411897174 5.3251175358891469 3.4702092744410038 6.1325484961271277 2.7578291296958914 5.2762287119403464 81.683314587920904 2.3302551414817572 3.4081714823842049 2.6497704777866602 0.92382544092833985 0.49723721155896783 0.55377283832058288
leaf_count=35 22 13 21 54 34 78 23 58 615 21 28 26 11 24 17
internal_value=-9.49458e-05 -0.0569533 0.00226368 0.0353369 0.0584329 -0.00201077 0.00463446 -0.0433269 0.00808194 -0.0883018 0.00581657 0.0915759 -0.112206 -0.106338 -0.103713
internal_weight=123.655 4.92522 118.73 13.5887 11.4451 105.141 90.5737 14.5678 87.8159 7.60648 6.96127 7.97489 2.87401 1.95018 1.05101
internal_count=1080 100 980 135 114 845 716 129 693 79 50 80 65 54 41
is_linear=0
shrinkage=0.1


Tree=46
num_leaves=8
num_cat=0
split_feature=0 16 12 16 8 19 18
split_gain=1.61071 1.85986 2.60085 2.13502 2.3166 1.42095 0.0263891
threshold=2.0611697363491976 -1.4372517922054977 -1.2910337418039506 1.6433003560769104 0.22639207996243477 -0.086614046951234216 0.12067607604644474
decision_type=2 2 2 2 2 2 2
left_child=1 -1 5 4 -4 -3 -7
right_child=-2 2 3 -5 -6 6 -8
leaf_value=-0.09559770305642834 -0.074610749230862472 0.017044932055536411 -0.0025050486712719397 -0.07669436397415999 0.049086102693713662 0.11559493196621334 0.098122803326604668
leaf_weight=1.9333379007875908 2.8324737809598437 3.4279975816607475 97.548897843807936 3.5530879311263552 9.556280190125106 1.9114589951932424 1.5781221520155666
leaf_count=15 24 25 847 26 102 17 24
internal_value=-7.93428e-05 0.00168712 0.0032868 -0.000431834 0.00209809 0.0627726 0.107693
internal_weight=122.342 119.509 117.576 110.658 107.105 6.91758 3.48958
internal_count=1080 1056 1041 975 949 66 41
is_linear=0
shrinkage=0.1


Tree=47
num_leaves=14
num_cat=0
split_feature=18 16 1 9 19 14 0 1 18 13 17 4 14
split_gain=1.64246 2.31826 1.90825 4.25559 3.18136 2.25356 5.16542 2.89683 3.54417 3.44412 2.55325 2.25625 1.12175
threshold=-1.364648890623591 -0.83568479806675589 1.4807154531524023 0.21595300751413304 -0.13925718170719772 -0.83421139154079726 -0.21649904588834618 -0.55500177772826664 -0.90404416941724097 -0.54895330345316473 0.25205070705660509 0.030657798831327857 -0.31283676934226518
decision_type=2 2 2 2 2 2 2 2 2 2 2 2 2
left_child=1 -1 5 -4 -5 6 11 8 -7 -9 -8 -2 -6
right_child=2 -3 3 4 12 7 10 9 -10 -11 -12 -13 -14
leaf_value=0.04101639361298548 -0.041082045022406331 -0.11298683917618405 -0.12791338184318651 -0.091907967010391528 0.10556501418154024 0.056951881056671372 -0.16198173791318674 0.059863201828832459 -0.033227401679204079 0.0088764531385272637 -0.031692698158913075 0.049043936307838792 0.0079766400411602715
leaf_weight=1.4840771630406377 4.657424835488202 2.8634161595255128 3.5326044466346485 2.2206747271120548 2.1929345093667507 5.4725610148161676 3.2364340871572486 19.041999133303761 21.401447438169271 43.543857053853571 2.8100360203534365 6.8824523128569126 2.5447075478732586
leaf_count=13 45 37 29 22 18 55 23 183 219 350 20 44 22
internal_value=-5.68831e-05 -0.0604157 0.00217568 -0.0385257 0.00685477 0.00616457 -0.0265601 0.0125977 -0.0148635 0.0243894 -0.101431 0.0126696 0.0531478
internal_weight=121.885 4.34749 117.537 10.4909 6.95832 107.046 17.5863 89.4599 26.874 62.5859 6.04647 11.5399 4.73764
internal_count=1080 50 1030 91 62 939 132 807 274 533 43 89 40
is_linear=0
shrinkage=0.1


Tree=48
num_leaves=22
num_cat=0
split_feature=2 3 3 3 16 4 15 13 1 6 16 5 13 4 4 16 14 7 17 12 1
split_gain=1.45419 3.69642 3.53175 3.69829 3.9889 3.94274 3.62823 3.47603 3.06955 2.64376 3.94215 7.56119 4.63804 2.70465 4.49157 2.2957 2.12904 1.48594 0.801059 0.618129 0.109028
threshold=0.56909403572332395 0.95423758001525305 0.61238333861217698 -0.16628465569482964 0.38244974297236117 0.044081688978791764 0.026614135505562464 -0.54413014033940288 0.74429398596402174 1.0000000180025095e-35 -0.32535365344520423 -0.17583820291693553 -0.2235797216038633 0.74813091437539214 0.53357419029530662 0.50148388506200081 -0.11151389542402011 0.083581587068212726 0.25205070705660509 0.10966348503910371 1.7776467947341346
decision_type=2 2 2 2 2 2 2 2 2 2 2 2 2 2 2 2 2 2 2 2 2
left_child=1 9 3 5 8 6 -2 -3 -5 10 12 -12 -1 14 -11 -7 19 -18 -9 -4 -15
right_child=2 7 16 4 -6 15 -8 18 -10 13 11 -13 -14 20 -16 -17 17 -19 -20 -21 -22
leaf_value=0.0052677913858335187 0.042553912050178277 0.0094220383287040993 -0.084327743514475084 -0.17098410392368604 -0.0080670299597513425 0.10745149934395326 -0.1284258198626565 -0.14302931514901659 -0.034655373015150502 0.038544731256039022 0.056822301530201319 -0.083486527001425254 -0.090992906838027965 0.11624894373758464 -0.088877757903668517 -0.019740542990437222 0.0023902496038685113 0.098372893233760639 -0.065273289857731023 0.0026051951776740034 0.084122024038823365
leaf_weight=12.610832104459407 2.0478017348796129 5.1803379617631435 1.4183016289025547 4.7870031744241714 5.0044331671670079 3.6522806044667959 3.1504967547953129 2.7614575815387052 2.521546732634306 24.441350394859914 18.109406085684896 4.8746349113062051 8.2995438957586867 3.1983599886298171 3.1194099746644488 2.3207338564097881 2.5580287706106883 4.365609216503799 2.5469686137512326 1.9321935195475815 1.5772535353899
leaf_count=105 17 33 10 42 36 32 31 33 20 162 176 71 87 38 21 25 28 37 27 31 18
internal_value=-4.88512e-05 0.00680586 -0.0176574 -0.0390512 -0.0768504 0.00261091 -0.0610706 -0.0488531 -0.123949 0.0144641 -0.00151993 0.0270645 -0.0329391 0.0361613 0.0241227 0.0580328 0.0312439 0.0629108 -0.105722 -0.0341945 0.105638
internal_weight=120.478 86.7196 33.7584 23.4843 12.313 11.1713 5.1983 10.4888 7.30855 76.2308 43.8944 22.984 20.9104 32.3364 27.5608 5.97301 10.2741 6.92364 5.30843 3.3505 4.77561
internal_count=1080 771 309 203 98 105 48 93 62 678 439 247 192 239 183 57 106 65 60 41 56
is_linear=0
shrinkage=0.1


Tree=49
num_leaves=11
num_cat=0
split_feature=13 14 11 19 2 3 1 17 13 13
split_gain=1.41419 1.82085 3.87473 2.82227 1.71105 3.65506 2.99523 2.39887 4.5157 3.03053
threshold=-1.6759755581310596 -1.0356583595126228 0.17467908292982823 -0.30568410422514242 0.35370299662746257 1.4670189421198674 -0.25733298427283247 -0.5981513237224404 -0.49458898382676458 0.60177200373350959
decision_type=2 2 2 2 2 2 2 2 2 2
left_child=-1 2 3 -2 5 6 -3 8 -6 -9
right_child=1 4 -4 -5 7 -7 -8 9 -10 -11
leaf_value=0.075215474727615569 -0.157332646635582 -0.0074133633032876711 0.052977126240052269 -0.020924271550368301 -0.15180474028913751 -0.082291190493729377 0.035777468944958028 0.017946651591564274 -0.011412829007798775 -0.063981357422918314
leaf_weight=2.4444779437035313 3.0714152548462152 28.47749824821949 2.7581437020562589 2.9965466335415822 3.3355844654142857 3.9357762094587079 36.811838632449508 21.370129892602566 7.3165100105106813 5.724375002551823
leaf_count=28 23 264 21 23 21 37 324 166 65 108
internal_value=-5.49998e-05 -0.00164395 -0.0452992 -0.08997 0.00195799 0.0112971 0.0169388 -0.0151693 -0.055375 0.000637361
internal_weight=118.242 115.798 8.82611 6.06796 106.972 69.2251 65.2893 37.7466 10.6521 27.0945
internal_count=1080 1052 67 46 985 625 588 360 86 274
is_linear=0
shrinkage=0.1


Tree=50
num_leaves=13
num_cat=0
split_feature=12 3 17 10 1 13 12 17 3 13 11 13
split_gain=1.37658 3.14531 3.02644 4.16822 1.89278 2.24964 2.313 3.28459 3.25853 0.077204 0.000875834 0.000215821
threshold=0.83876680278572635 0.49843192481115162 0.34065074149945662 -0.62948504861210519 1.9155068717905859 -1.6759755581310596 0.22831431482603912 -0.25567217463495967 -0.71704982239978554 0.10072128240136864 0.76535336499175977 0.77949200464091239
decision_type=2 2 2 2 2 2 2 2 2 2 2 2
left_child=4 2 3 -2 5 -1 8 -8 -7 -3 -11 -12
right_child=1 9 -4 -5 -6 6 7 -9 -10 10 11 -13
leaf_value=0.10950368537701985 -0.082569327082833405 -0.13816060507979327 -0.10289596665935102 0.093088520112614037 -0.064760418147114238 0.031394942587182853 -0.024521307720653716 0.060139986039625365 -0.015625226280291834 -0.10847032403472914 -0.10569341194490273 -0.10298107790041799
leaf_weight=2.0623424742370835 2.014394204132258 1.184176288545131 2.1418943051248789 4.1011746050789943 3.9116304516792288 19.63419521972537 6.7065257411450174 14.469934773631392 59.108635567128658 0.77595257200300682 0.51741832215338923 0.67747826082631946
leaf_count=26 33 7 38 36 36 189 61 144 454 13 13 30
internal_value=-5.16929e-05 -0.0330495 -0.000599117 0.035229 0.00350459 0.00612298 0.00398919 0.033328 -0.00390094 -0.11798 -0.105854 -0.104156
internal_weight=117.306 11.4125 8.25746 6.11557 105.893 101.982 99.9193 21.1765 78.7428 3.15503 1.97085 1.1949
internal_count=1080 170 107 69 910 874 848 205 643 63 56 43
is_linear=0
shrinkage=0.1


Tree=51
num_leaves=8
num_cat=0
split_feature=0 16 12 16 3 19 18
split_gain=1.39104 1.52516 2.01271 1.98766 2.04409 1.25807 0.0188501
threshold=1.9310172345070522 -1.4372517922054977 -1.2910337418039506 1.9781429808902156 -1.305798793705083 -0.086614046951234216 -0.10457543927946907
decision_type=2 2 2 2 2 2 2
left_child=1 -1 5 4 -4 -3 -7
right_child=-2 2 3 -5 -6 6 -8
leaf_value=-0.089618236195313783 -0.055808218224483022 0.015656430988223283 0.061201861612727032 -0.095340608339136934 -0.0011471136919768462 0.11337675629911521 0.097518928122626969
leaf_weight=1.7848097933456291 4.3100035693496457 3.2620473578572273 5.5614701975136986 2.1305118780583134 96.444921400863677 1.4885027110576632 1.5100305285304774
leaf_count=15 37 25 61 14 888 15 25
internal_value=-5.8203e-05 0.00208369 0.00356625 0.000255575 0.0022522 0.0586352 0.105391
internal_weight=116.492 112.182 110.397 104.137 102.006 6.26058 2.99853
internal_count=1080 1043 1028 963 949 65 40
is_linear=0
shrinkage=0.1


Tree=52
num_leaves=11
num_cat=0
split_feature=18 16 1 9 19 2 1 13 1 10
split_gain=1.37369 1.96943 1.47131 3.25323 2.73705 1.88564 2.00478 4.78105 3.36483 0.979224
threshold=-1.364648890623591 -0.83568479806675589 1.4807154531524023 0.21595300751413304 -0.13925718170719772 1.8377410871036635 0.63947891483459685 -0.093411251787341484 0.5294661972570357 0.38764324144485685
decision_type=2 2 2 2 2 2 2 2 2 2
left_child=1 -1 5 -4 -5 6 8 -8 -2 -6
right_child=2 -3 3 4 9 -7 7 -9 -10 -11
leaf_value=0.037581863347786681 0.0057126821947294012 -0.10872265883134369 -0.1138702537962249 -0.086885648552638708 0.10344051908134383 -0.071759567570936392 0.079937622854565113 -0.040800901555565178 -0.10457176216823871 0.008748106000075551
leaf_weight=1.4180910997092722 81.066246807109565 2.619919810909777 3.4099105764180404 2.11421281658113 1.9912657104432581 3.056594429537653 10.304934471845625 4.8107751961797467 2.8642702437937251 2.4183999449014664
leaf_count=13 729 37 29 22 15 34 102 49 25 25
internal_value=-4.0373e-05 -0.0573426 0.00202491 -0.0347147 0.0066585 0.00559938 0.00798669 0.041511 0.00194904 0.0515082
internal_weight=116.075 4.03801 112.037 9.93379 6.52388 102.103 99.0462 15.1157 83.9305 4.40967
internal_count=1080 50 1030 91 62 939 905 151 754 40
is_linear=0
shrinkage=0.1


Tree=53
num_leaves=9
num_cat=0
split_feature=10 15 12 5 18 15 5 17
split_gain=1.26537 1.89873 1.95662 3.26761 3.1395 1.8986 1.7019 0.825013
threshold=2.4617320268191798 1.1411031976170454 0.83876680278572635 -0.11575508236613015 -0.29060865706124656 0.83527186409782195 -1.0538267148133202 -0.81016616469634639
decision_type=2 2 2 2 2 2 2 2
left_child=1 2 5 4 -4 6 -1 -5
right_child=-2 -3 3 7 -6 -7 -8 -9
leaf_value=0.052040924893395492 -0.068663259254302056 0.080512557728182638 0.087514108254346815 -0.015216358866395703 -0.071190117559298383 -0.079301310630361596 0.0022010814053679108 -0.11673198818842692
